0.0085567 0.00402062 0.00505155 0.00556701 0.00268041 0.000412371 0.00103093 0.00556701 0.00474227 0.00628866 0.00391753 0.00484536 0.00558998 0.00345235 0.00556701 0.00412371 0.00402062 0.00113402 0.00938144 0.00680412 0.00247423 0.00206186 0.00402062 0.00938144 0.00865979 0.000412371 0.00195876 0.00453608 0.00360825 0.00721649 0.00340206 0.00835052 0.00298969 0.00733099 0.00865663 0.00327724 0.00965305 0.00942588 0.00514872 0.00477611 0.00371989 0.00356233 0.00727147 0.00559088 0.00537737 0.00278638 0.0071774 0.00368643 0.00835822 0.00353298 0.0018443 0.00917245 0.00103093 0.0043299 0.0071134 0.00206186 0.00979381 0.00113402 0.0102062 0.00752606 0.00556708 0.00312745 -0.000247795 0.00225399 -0.000754816 -0.0066533 0.00309192 0.00733734 0.00190097 0.0486305 0.0239878 0.0216932 0.0295614 0.016806 0.0125871 0.0179059 0.00654062 0.00707665 0.0019159 0.00604312 0.00624476 0.0101826 0.00237113 0.00948454 0.00453608 0.00762887 0.00351969 0.00267707 0.00925899 0.00402285 -0.00184091 0.00341902 -0.00454598 -0.010259 -0.00949131 -0.00932162 0.00213443 0.019985 0.0146846 0.0103407 0.02108 0.0376987 0.0303585 0.00796919 -0.00867621 -0.00403137 0.00168003 0.00578578 0.00691329 0.00756983 0.000312924 0.00886598 0.0043299 0.00216495 0.00262808 0.00442351 0.00814125 0.00473528 0.00317128 -0.00521145 0.00395192 -0.00772057 -0.0153753 -0.013882 -0.000478502 -0.00287797 -0.000905217 0.00417413 0.0328844 0.0248948 0.0189666 0.0161468 -0.00575747 -0.0149263 -0.0142046 -0.00205045 -0.0108257 -0.00143709 0.0093429 0.00252697 0.00804124 0.0028866 0.00537142 0.00576391 0.00894485 0.0116619 0.004293 -0.00404611 0.00792277 -0.0220919 -0.025268 -0.0286774 -0.0437498 -0.0327661 0.0164374 -0.00132763 0.0269991 0.0306051 0.0217547 0.0330107 0.0144401 -0.00747339 -0.00426486 0.000546357 -0.00198866 -0.00306499 0.000487701 0.00211965 0.00556701 0.00195863 0.00367862 0.0119988 0.00681571 0.00533305 -0.000743677 -0.0231324 -0.0348553 -0.04546 -0.0180493 -0.0226279 -0.0275854 -0.0184475 0.0142229 -0.0168317 -0.00400111 0.0160567 -0.0102553 -0.0128231 -0.0053423 -0.0174802 -0.00919807 -0.00508219 -0.00119639 -0.0022663 0.00399183 0.0033081 0.00515464 0.009171 -0.00341801 0.00965725 0.00653235 -0.0362766 -0.049872 -0.0177011 -0.0168896 -0.012316 -0.0369092 -0.0511893 -0.0163733 -0.00617307 0.0119335 -0.000908544 0.00709025 -0.0139592 -0.0217778 -0.0292801 -0.0206331 -0.0127833 -0.00902425 -0.00719227 0.00106669 2.14357e-05 0.00599169 -8.2636e-05 0.00111743 0.00154615 0.000478858 0.00102492 0.0092683 -0.0319281 -0.0228689 0.00225013 0.00458351 0.0123194 0.00666026 -0.00434821 0.0132587 -0.0189724 -0.0114825 0.00818019 0.0102493 -0.0184102 -0.0256257 -0.0342006 -0.0132882 -0.0132367 -0.00378478 -0.00351384 -0.00485001 1.84831e-05 0.000237007 0.00566526 0.00896907 0.0054682 0.00215748 0.0037689 -0.00841819 0.00471007 0.00656672 0.0192415 0.0326681 0.0265407 0.0341734 0.0516391 0.0437736 0.0108298 -0.0026135 0.0170628 -0.00848294 -0.00927427 -0.022522 -0.0416792 -0.0197263 -0.0109389 0.000133171 -0.00777434 -0.00436928 0.000545041 0.0047614 0.00292422 0.0101031 0.00453818 0.00803538 0.00533499 -0.000467738 0.0136636 0.00135748 0.00489686 0.0121178 0.0104176 0.0216427 0.0188394 0.0150751 0.00562407 -0.00071525 -0.0172543 -0.0117029 -0.00529564 -0.0351075 -0.033715 -0.0165995 -0.00689603 -0.0123024 -0.00867144 0.00153984 0.00567607 -0.00021377 0.00504067 0.00278351 0.00911125 0.00600113 -0.00306577 0.00804223 0.0116468 0.0174084 -0.00151727 -0.00699248 0.0418544 0.0268789 0.00878489 -0.0370169 -0.0378592 -0.00769899 -0.0133171 -0.0292281 -0.012388 -0.0393008 -0.00863956 -0.0203623 -0.00781741 -0.00399733 -0.00402339 0.000836083 0.00771233 0.0021747 0.00413372 0.00515464 0.00254085 0.0064794 -0.00302269 0.00864763 0.00662826 0.0121432 0.00645551 0.00121841 0.0438496 0.0193166 -0.00626247 -0.0442399 -0.0380928 -0.0155179 -0.0160481 -0.0231158 -0.025204 -0.0244126 -0.0366625 -0.0445047 -0.0264091 -0.00496984 -0.00841764 0.00888943 0.00920095 0.0039404 0.00365446 0.00979381 0.00238153 0.000393989 0.00400318 -0.00448294 -0.00124604 -0.000234036 -0.0105247 -0.0286828 -0.0241412 -0.0323483 -0.0496701 -0.0815505 -0.0515612 -0.038996 -0.0165752 -0.0164362 -0.0169689 -0.015755 -0.0381822 -0.0358124 -0.0142266 -0.00739927 -0.00535298 0.00885383 0.0135967 0.00644508 0.00968066 0.00185567 0.00438377 0.00868119 0.00174503 -0.000622764 -0.0142693 -0.0222715 -0.028593 -0.0177736 -0.0429691 -0.0695237 -0.0753664 -0.077207 -0.0593518 -0.01483 -0.00386694 -0.0203054 -0.00550424 -0.0213286 -0.0387019 -0.0379699 -0.0248206 -0.00384179 -0.0100149 0.00399738 0.00720599 0.00240935 0.000312922 0.00917526 5.12075e-05 0.00687774 0.00818136 -0.00994791 -0.0151339 -0.0272812 -0.0292751 -0.0151588 -0.0309993 -0.0474339 -0.0617987 -0.063272 -0.0466557 -0.00396182 -0.0107855 -0.01229 -0.00514394 -0.0262714 -0.0560823 -0.041464 -0.0227856 -0.0202594 -0.0126414 -0.000581892 0.00562034 0.0115107 0.00565543 0.00804124 0.00199642 0.00600155 0.000912801 -0.00972984 -0.0203866 -0.0242153 -0.0229978 -0.0179661 -0.0181676 -0.0299701 -0.0507168 -0.0656362 -0.033261 -0.00959073 0.00300647 -0.00213217 0.0112044 -0.0278788 -0.0417628 -0.0475286 -0.0259772 -0.0168641 -0.0105289 0.00348536 0.011502 0.0114803 0.00597452 0.00494845 0.00794688 0.00838907 0.0044507 -0.017028 -0.0211821 -0.0223936 -0.0183874 -0.00263753 0.00386538 0.00327078 -0.0442659 -0.0552797 -0.0112356 0.0018974 0.0290484 0.0187098 0.00151161 -0.00709772 -0.041159 -0.0283796 -0.0116959 -0.00767329 -0.0211507 -0.00653681 0.01004 0.0116665 0.00980114 0.00969072 0.0079378 0.00296318 -0.000262408 -0.0148824 -0.0199207 -0.042787 -0.0245507 0.00405336 0.0171668 -0.0117239 -0.0420683 -0.0330714 -0.01572 -0.00867994 0.0190082 0.0346093 -0.00556124 -0.0077958 -0.033085 -0.0017775 -0.00578541 0.00115902 0.00659224 0.00421372 0.0104505 0.0110513 0.0110122 0.00329897 0.0101328 0.000101272 -0.0121452 -0.0229134 -0.0383898 -0.0470891 -0.0159518 0.00238488 0.0173269 -0.019415 -0.0308436 -0.0395513 -0.0186747 0.0332325 0.0622123 0.0843111 0.0241169 0.0108713 0.0102014 0.0389551 0.0405413 0.0298492 0.0354359 0.00380602 0.0180018 0.00685827 0.00151901 0.00742268 0.00791173 -0.00120339 -0.000786413 -0.0137033 -0.0350437 -0.0253291 -0.026562 -0.022271 0.0223792 0.035497 0.0547897 0.0420722 0.0209008 0.0554915 0.0765875 0.0678349 0.0702081 0.0935571 0.0748436 0.0718139 0.0685635 0.060554 0.0519471 0.0172559 0.0126965 0.0109262 0.00845361 0.00793814 0.00700706 0.00174039 0.0134595 0.00326516 0.0245347 0.0260472 0.0479813 0.0249767 0.0117037 0.026551 0.00481898 0.00941784 0.048524 0.049346 0.0394342 0.0365399 0.0558965 0.0629246 0.0530888 0.0569963 0.0345267 0.035305 0.0379299 0.0299042 0.0173922 0.00859565 0.00237113 0.00649485 0.00123711 0.00731986 0.00962555 0.0156382 0.0364798 0.0541402 0.0502361 0.056152 0.0293979 0.0164162 -0.00742252 -0.0165462 0.000128445 0.0231662 -0.00196577 -0.0439367 -0.0126 0.016869 0.00514185 0.0021369 0.0154655 0.00860791 0.0119253 0.0061528 0.00606225 0.000322886 0.00103093 0.00731959 0.00237113 0.00614551 0.0048803 0.00640013 0.00999333 0.0277873 0.0317644 0.0330201 0.0193943 -0.00768118 -0.0250767 -0.0233723 -0.00737238 -0.0418592 -0.0618297 -0.061038 -0.0497804 -0.021025 -0.0112773 -0.0145961 0.00580615 0.0107142 0.000367787 -0.010027 0.0050597 0.00667775 0.00876289 0.00701031 0.00989691 0.00437167 -0.000915009 -3.17753e-05 0.00196848 0.00134336 -0.00122362 -0.00419688 0.00196986 -0.0331057 -0.0377384 -0.0329956 -0.0351415 -0.0342873 -0.0366466 -0.0363872 -0.00589418 0.00854951 0.00074447 -0.00658598 -0.00348728 0.00703864 0.00378752 0.00791279 -0.000871193 0.00269081 0.00876289 0.000206186 0.00453608 0.00751955 0.00143416 -0.000765207 0.00725068 -0.00287697 -0.00243018 -0.00294452 -0.01147 -0.0190622 -0.013759 -0.00814316 -0.0180757 -0.015096 -0.0130325 -0.0158727 0.00496072 0.00653868 0.00343237 -0.00230579 0.00177071 0.00157098 0.00724028 0.00692146 0.00120969 0.00136817 0.00680412 0.00670103 0.00979381 0.00907216 0.00340104 0.0102252 0.00854311 0.00314629 0.00729033 0.00391923 -0.00707425 0.00197319 -0.00627882 0.00388204 -0.00182728 -0.00755392 -0.00609781 0.000727869 0.00314841 0.00214981 0.00927837 0.00498657 0.00320423 0.00695279 0.00109229 0.00710599 0.00546392 0.00546392 0.0102062 0.00505155 0.00742268 0.000412371 0.00278351 0.0014433 0.000928338 0.00875837 0.00127508 0.00829904 0.00911503 0.00721951 0.00694353 0.00238337 0.0067046 0.0076991 0.00147482 0.00742065 0.00674681 0.00994878 0.00153342 0.00607231 0.0042199 0.00666957 0.000224476 0.00412371 0.00824742 0.00896907 0.00628866 0.00412371 0.00257732 0.00319588 0.00824742 0.00731959 0.00195876 0.00525773 0.00206186 0.00814433 0.0042268 0.00340206 0.00494845 0.00484575 0.00237199 0.00628866 0.00690722 0.00113402 0.000721649 0.000412371 0.0101031 0.0057732 0.00412371 0.00175258 0.00835052 0.01 0.000412371 0.00597938 0.00896907 0.00340206 0.00474227 0.00680412 0.00608247 0.00505155 0.00711392 0.00840927 0.00297108 0.0118499 0.00894239 0.00802761 0.0119598 0.00536236 0.00611418 0.0103088 0.00916256 0.00385263 0.00758272 0.000238761 0.00889809 0.00331735 0.010043 0.00662449 0.00350799 0.00989691 0.00773196 0.00670103 0.00474227 0.00402062 0.00690722 0.00536082 0.00310167 0.00196163 0.000535677 0.0036078 0.0064537 0.00331043 0.00446719 0.0078177 -0.000558363 0.00288861 0.00204227 0.00906045 0.00397129 -0.00126909 0.00161884 -0.000811697 0.00215826 0.00508836 0.00469216 0.00110374 0.00783725 0.00586258 0.00446151 0.00391753 0.00752577 0.00659794 0.00814433 0.00575628 0.00940443 0.00289723 0.00885963 0.0030103 0.0107459 0.010432 0.00425319 0.00837419 0.0068414 0.0126942 0.0155193 0.0157856 0.00864293 0.00231323 0.00316428 0.00719107 0.00437871 0.00392411 0.000525616 0.00443108 0.00225081 0.00391285 0.00615925 0.000100634 0.00195876 0.00989691 0.00618557 4.60182e-05 0.00833945 0.00394302 0.00571761 0.0025454 -0.00168263 -3.91017e-05 0.00630527 -0.00554609 9.157e-05 0.0142768 0.0311844 0.0250698 0.0302261 0.0166249 0.00388571 -0.00795006 -0.0091269 -0.0024297 -0.00450773 0.0017639 -0.000275385 0.00135186 0.00621847 0.00117717 0.0085646 0.00824742 0.00206186 0.00185502 0.00347335 0.00232027 0.00358388 -0.0025304 0.00266169 -0.0048747 -0.0108934 -0.0133963 -0.0110155 0.00792517 0.0192292 0.0116941 0.0174953 0.0072129 0.0189413 0.00116631 0.00546733 0.00475293 -0.00458829 -0.0102037 -0.00970966 0.00238642 0.00305515 0.00402428 0.00165365 0.00701031 0.00804204 0.00819898 0.00365378 0.00930632 0.00075194 -0.00219252 0.00534366 -0.00221765 -0.00638858 -0.00765541 -0.00860621 -0.0119556 -0.0138884 -0.0111314 0.00750657 0.017543 0.017414 0.00705299 0.000335443 -0.00857707 -0.00968438 -0.00478856 -0.00358156 0.00127234 0.00465229 0.00646198 0.00534077 0.00206186 0.00878925 0.00275483 0.000160797 0.00506355 0.00125144 -0.00041649 0.00173083 -0.00591315 -0.0091796 -0.0124462 -0.0155318 -0.017755 -0.0122317 -0.0180541 0.0110586 0.0213388 0.0213798 0.00897252 0.000303075 -0.0208984 -0.00806953 -0.0108186 -0.00550079 -0.00364523 0.0061547 0.00986732 0.00468106 0.00228773 0.00402211 0.00596134 0.000291447 0.00277477 -0.00211951 0.000928781 -0.00374525 -0.00199066 -0.0168063 -0.0208003 -0.0197378 -0.00346886 0.00669079 0.00443935 -0.00331005 2.33498e-05 -0.00293294 -0.00900504 0.0105846 -0.0031333 -0.00466836 -1.58051e-05 -0.0107175 0.000159901 0.0108956 0.00390504 0.00592207 0.0057732 0.00468626 0.00322306 -0.00037628 0.00408371 -0.00517348 0.00230599 -0.00041593 -0.00549801 -0.0160427 -0.00646101 0.00123224 0.011044 0.0211441 0.00276659 -0.0106536 -0.0257033 -0.0222486 -0.0152319 0.0139411 0.0146482 -0.00132276 0.00223973 -0.00062672 0.00594955 0.00488539 0.00856708 0.00142021 0.00402062 0.00153737 0.00352249 0.00845355 0.00808016 -0.00475662 0.000335641 -0.00652484 -0.00623466 -0.00676353 0.00666793 -0.00320944 0.00628218 -0.00019488 0.00450027 -0.0136736 -0.0207862 -0.00147101 0.00854444 0.0073182 0.0161815 0.00391756 0.00840477 0.00475787 0.0022269 0.00216443 0.00210756 0.00887332 0.00907216 0.0089306 0.00435979 0.00272685 0.00341852 0.00369271 -0.00461956 -0.0117158 -0.00803334 -0.00251587 0.00131823 -0.00042172 -0.0132969 -0.00525337 0.0228897 0.0160408 0.0251753 0.0262422 0.017241 0.00378823 0.00727144 0.00282002 0.00529684 0.00905174 0.00820034 0.00889442 0.00914014 0.00940684 0.00505155 0.00627351 0.00307143 0.00384916 -0.000832135 0.0018264 0.00339612 -0.00593176 -0.0201377 -0.00771136 -0.00126881 -0.00484619 -0.0140519 0.0103579 0.0322887 0.0313786 0.0280602 0.0247844 0.00354166 0.00251239 -0.0125889 -0.0111692 -0.0097246 -0.00250645 0.00340142 0.00916457 0.0116789 0.00350848 0.000824742 0.0018464 0.000620623 0.000167078 0.00228898 0.00447326 -0.00131825 -0.00976734 -0.00953223 -0.0134397 -0.00873205 -0.00395651 0.00921021 0.0277783 0.0233761 0.0243819 0.0102726 -0.00887614 -0.00918486 -0.0155292 -0.0152117 -0.0196584 -0.0096727 -0.00188012 0.00659475 0.0026833 0.00230189 0.00720324 0.00278351 0.00919649 0.00930524 0.009091 0.00059849 0.0018624 0.000811997 -0.0150534 -0.012507 -0.0072887 -0.00688144 -0.0131646 0.00878817 0.0136335 0.0071729 0.00508567 0.00578656 -0.00473185 -0.0128075 -0.0190234 -0.0247016 -0.0176864 -0.0136013 -0.00117545 -0.000454435 0.00569113 0.00715543 0.00546376 0.00484536 0.00602187 0.000741858 0.0078151 0.00831612 -0.00391822 -0.0114482 0.00481642 0.0150211 0.00391737 -0.00192407 -0.00262519 0.00162774 0.00953084 0.00250064 -0.012772 0.0100716 -0.000586686 -0.00835115 -0.0133175 -0.0169633 -0.0146121 0.00550391 -0.00166923 0.00773024 0.00255356 0.00187915 0.00561913 0.00587629 0.00828236 0.00606269 0.00141699 0.00392014 0.00829643 0.00897567 0.0156021 0.0159675 0.0125284 -0.000459195 -0.00961941 -0.0111256 -0.0121751 -0.0240587 -0.0287861 -0.00994534 0.0025942 -0.0147031 -0.0139965 -0.00807399 -0.00425815 0.00519375 0.0103252 0.00802664 0.0079262 0.00897916 0.00767936 0.00628866 0.00361582 0.00362927 0.00168387 0.0133984 0.0134396 0.0145518 0.0127199 0.010918 0.0117533 -0.0107737 -0.0172217 -0.0178034 -0.0111599 -0.0239197 -0.0417937 -0.0172156 0.00313889 -0.00443496 -0.0073428 -0.00993492 -0.00269109 0.000386609 0.00668714 -0.0024126 -0.00242532 0.00712678 0.000838285 0.0056701 0.00195872 0.00922776 -0.000177396 0.0117925 0.0206028 0.0187062 0.0157721 -0.000996318 0.00712599 -0.0132525 -0.0138681 -0.0298012 -0.0134501 -0.0230083 -0.024358 -0.019268 -0.00436181 -0.00252422 -0.000724358 -0.0059009 -0.00401185 -0.000257608 0.00810565 0.00587414 -0.00359396 0.0014237 0.00647245 0.00525773 0.00354591 0.00122524 0.00424269 0.0187743 0.0128462 0.00886969 0.00344954 0.0127221 -0.00758638 -0.0144954 -0.0389526 -0.0222706 -0.0208633 -0.00940554 -0.00929601 -0.0131896 0.00424242 0.00792897 0.00583483 0.00159182 -0.000175608 0.00113577 0.000724329 -0.0043566 0.00418483 0.0070513 0.00415608 0.00175258 0.00444379 0.00728908 0.00644408 0.0136912 0.0121792 0.0024115 0.0168543 0.00469936 -0.00363981 -0.013859 -0.0210301 -0.0127697 -0.0135982 0.000922503 0.00142021 0.00561234 0.000967449 -0.000594907 0.00754952 0.0103168 -0.00208851 -0.000697277 -0.00271569 0.00119469 0.00586542 0.00724585 0.00195876 0.00247423 0.00917211 0.00591898 0.00620699 0.00954652 0.0105993 0.0130176 0.0123091 0.00798019 0.00543085 -0.0113866 -0.0054823 -0.0114537 0.00526179 0.00323857 0.0021199 -0.0065931 -0.0111145 -0.00790688 -0.000497963 -0.00268837 -0.0103916 -0.00533216 -0.00652778 -0.00106287 0.00247053 -0.000212324 0.00917526 0.0071134 0.00907216 0.00107327 0.0102607 0.00506242 0.00357998 0.0129995 0.0199943 0.0132138 0.00793699 0.0059034 0.0101853 0.0128115 0.00217258 0.00147453 -0.0174801 -0.0192167 -0.0201125 -0.0126113 -0.00649819 -0.0143001 -0.0131307 -0.00230494 -0.00120083 0.00162157 0.00926954 0.00468599 0.00608247 0.000824742 0.00804124 0.0101218 0.000571979 0.00618542 -0.00488769 -0.0051948 -0.000643532 0.0108373 0.0100821 -0.00138305 0.0145456 0.00941478 0.00568949 -0.0140911 -0.00995048 -0.0174769 -0.00849103 -0.00163736 -0.00700154 -0.0110379 -0.000634369 0.00345097 0.0042929 0.00515604 0.0101273 0.00799185 0.00814433 0.00896907 0.00329897 0.00149739 0.00102039 0.00383328 0.00126115 0.00750748 0.0060837 0.0112133 0.0218936 0.0234126 0.0156846 0.00530021 -0.00696245 -0.0121686 0.00106983 -0.000929827 0.00231548 0.00395168 -0.00148732 0.0043687 -0.000179554 0.00220342 0.00717486 0.00139207 0.00891645 0.00469925 0.00494845 0.00525773 0.00515464 0.00639627 0.00448594 -0.000762634 0.00556727 0.00468845 0.00428524 0.00966787 0.00726651 0.0106941 0.00765981 0.00845362 -0.00211417 0.00641945 0.00467259 0.00453408 0.00988605 0.0081949 0.00204601 0.00246562 0.0052116 0.00212152 0.00281102 0.00302116 0.00759999 0.00584173 0.00360825 0.0014433 0 0.00804124 0.00680505 0.00420292 0.00495149 0.00986197 0.00782322 0.0128216 0.0123726 0.0123886 0.0118357 0.00532674 0.00896897 0.0105319 0.0102913 0.0054315 0.0044434 0.00488666 0.000522663 0.0102766 0.000753702 0.0078673 0.00363825 0.002173 0.00876289 0.0057732 0.00659794 0.00453608 0.00515464 0.00783505 0.00484536 0.00969072 0.00834795 0.0058603 0.00893433 0.00577504 0.00245234 0.00651987 0.00729988 0.00115695 0.00582677 0.00245999 0.0100596 3.77132e-05 0.0062303 0.00287773 0.00750296 0.01043 0.00839912 0.00242544 0.00571042 0.00484536 0.00247423 0.0043299 0.0042268 0.00927835 0.00690722 0.0056701 0.00340206 0.00164948 0.00680412 0.00721649 0.00329897 0.00103093 0.00123711 0.00113402 0.00329897 0.0047428 0.00763002 0.00649485 0.00546392 0.00639175 0.00536082 0 0.00113402 0.00350515 0.00876289 0.00597938 0.00804124 0.00175258 0.00865979 0.00340206 0.00670103 0.00917526 0.00268041 0.00391753 0.00876289 0.000515464 0.00999957 0.00443558 0.00473365 0.000172251 0.00590117 0.00760234 0.00189492 0.00275806 0.00926454 0.00206046 0.00124762 0.00451964 0.00593942 0.00302427 0.000773313 0.000570732 0.00651028 0.00194218 0.00999351 0.00113402 0.00237113 0.00340206 0.00649485 0.0028866 0.00247423 0.0085567 0.00734634 0.00836092 0.0104238 0.00580687 0.00614026 0.00570707 0.008685 0.0108163 0.00579464 0.00482295 0.0046109 0.00726496 0.00563038 -0.000942364 -0.00332767 -0.00480601 -0.00806772 -0.00241923 0.00283909 0.0078419 0.00617807 0.00220068 0.0047191 0.00134021 0.000309278 0.00453608 0.00804124 0.00814562 0.000574303 0.00185175 0.00764246 0.00565491 0.00292245 0.0115844 0.00335384 0.00498702 0.0024045 0.0131707 0.0196677 0.00987177 -0.000835233 -0.00812005 -0.0148943 -0.0119524 -0.0156135 -0.0111582 -0.00358761 -0.00226948 0.00461731 0.00863094 0.00872413 0.00100802 0.00381443 0.00886598 0.00391753 0.00773596 0.00301902 0.0102612 0.008195 0.0037915 0.00567497 0.00369387 0.0101906 0.0120331 0.0130795 0.0184931 0.0197294 -0.0142788 -0.0221004 -0.0245865 0.00252235 0.0206753 0.00834215 0.00434671 0.00364677 -0.00200592 0.00262615 -0.00263078 0.00976806 0.00645983 0.00566708 0.00793814 0.00402062 0.00473951 0.00330416 0.00974243 -0.00365408 0.00599145 0.00554309 0.0118187 0.0307959 0.0376151 0.0405559 0.0350913 0.0221745 0.019122 0.045493 0.059558 0.0326087 0.032962 0.0206516 -0.014778 0.00442973 -0.0102303 -0.00253191 -0.00266516 0.0061042 0.00607703 0.00246913 0.00876289 0.00670232 0.00166687 0.00222592 0.00368387 -0.000138738 -0.0139546 -0.00244775 0.0232727 0.0512995 0.0529039 0.0149433 0.0236673 0.0552237 0.0854794 0.0529691 0.0298668 0.0209606 0.0459932 0.033752 0.0131601 0.0143261 -0.0136385 -0.0108318 0.00350471 -0.00298955 0.00752594 0.00632555 0.00175258 0.00718092 0.0059295 0.00114415 -0.00554466 -0.00828674 -0.00527814 -0.000616491 0.0223745 0.0413484 0.0235798 0.0160976 -0.000417913 0.0487621 0.0492368 0.0219683 0.000672875 -0.00384171 -0.00392003 0.0279254 0.0232357 0.0131085 -0.0138973 -0.00896859 -0.00210409 0.0019769 0.00010357 0.00968263 0.000171828 0.00876528 0.000331545 0.00926568 -0.000762756 -0.00205222 -0.0153847 -0.00627199 -0.0039822 8.10892e-05 -0.0117371 -0.00148061 -0.00854701 0.002989 0.016209 -0.00240957 -0.0104043 -0.0117781 0.00406994 0.00700189 0.0112745 -0.00729312 0.00898292 0.00450873 -0.0104646 -0.00371361 0.00304977 0.00110596 0.00515464 0.00627998 0.00695682 0.0121077 -0.003442 0.00698174 0.00429297 -0.00213567 -0.00248136 -0.0136642 -0.0642585 -0.0444809 -0.0236545 -0.0703656 -0.0704846 -0.0569031 -0.0162685 -0.00696375 0.024373 -0.000733132 -0.00394407 -0.00986113 0.0114858 0.01031 -0.000695519 0.00737959 0.00338127 0.00203838 0.000206186 0.00712654 0.00711268 0.00984571 0.00333734 0.0154543 0.00158071 -0.00517641 -0.00502227 -0.0259039 -0.0495012 -0.0540836 -0.0750867 -0.0746839 -0.0858874 -0.0497356 0.0281697 0.0357127 0.0389641 0.00728851 -0.00689683 -0.00255701 0.0109221 0.00632859 0.00353006 0.0084867 0.00629604 0.00729439 0.00762887 0.00658494 0.00951753 0.00487237 -0.000448091 -0.000830903 -0.00722339 -0.0235269 -0.0416575 -0.0595715 -0.0524461 -0.0685496 -0.079568 -0.0657382 -0.0537424 -0.0101383 0.0223964 0.03082 0.0181801 0.0101656 -0.012124 -0.0016767 -0.00295877 0.00296625 0.00120219 0.00355952 0.00696819 0.00872733 0.00402062 0.00654238 0.00600426 0.00293291 -0.00407341 -0.0103688 -0.0225428 -0.0453091 -0.060845 -0.0827969 -0.0661497 -0.0666444 -0.0547746 -0.0452014 -0.0230751 0.00444649 0.0277681 -0.00956597 0.0163405 0.0153813 0.00266586 0.000576838 -0.0123873 -0.00160179 0.00854344 0.00944318 0.00162497 0.000530384 0.00494845 0.00548723 -3.74401e-05 0.00615781 -0.0163081 -0.0211694 -0.0320249 -0.0549688 -0.080606 -0.0839969 -0.0759187 -0.0558869 -0.0333311 0.0157759 0.0152425 0.00338016 -0.0122974 -0.0469773 0.00492397 0.0172985 0.00964653 0.00511637 -0.00245217 0.00437069 0.00973664 0.0057665 0.0049525 0.00767508 0.00381443 0.00212545 -0.000104711 0.00147386 -0.012388 -0.0212178 -0.0277488 -0.0514522 -0.0608217 -0.0598353 -0.0396215 -0.0266388 -0.0126676 0.0254841 -0.00145658 -0.0130493 -0.0279174 -0.0328093 -0.0016014 0.0109135 0.00304115 0.00844066 0.00608872 0.00119947 0.00923557 0.0106461 0.00967837 0.00216551 0.00329897 0.00717191 0.00141518 0.000613786 -0.01252 -0.0114185 -0.0249895 -0.032738 -0.0354122 -0.0108523 0.0117228 -0.0143131 0.0098825 0.0141987 -0.020818 -0.0124114 -0.0335246 -0.0397437 -0.0273696 -0.0280007 -0.0135543 -0.00197974 -0.00169534 -0.0044954 0.00882754 0.00822463 0.0120085 0.00430121 0.0014433 0.00119115 0.00216916 0.00033068 -0.00386142 -0.00329124 -0.00749748 -0.0156744 -0.00981047 0.0325927 0.0359233 0.00894604 0.00594286 0.0189932 -0.0134185 -0.0362014 -0.0300635 -0.0467182 -0.0447226 -0.0197567 -0.02225 -0.00307436 0.002745 -0.00040508 0.00843366 0.0132581 0.00905041 0.0058038 0.00793814 0.000138622 0.00217572 -0.00066869 -0.00128932 -0.00278182 -0.00743457 -0.0168862 -0.0097459 0.0371103 0.0133091 -0.0059597 -0.00197474 -0.00369415 -0.0252678 -0.0305124 -0.0412785 -0.0491153 -0.0322505 -0.0248646 -0.0261299 -0.00533359 0.00243944 -0.00591986 0.0115154 0.0111542 0.00900355 0.00481669 0.00989691 0.0088897 0.0041968 0.0101033 0.000272861 -0.0111251 0.00174599 0.00104796 0.0089298 0.0145331 -0.0060773 -0.0207256 0.014891 -0.00975138 -0.0196674 -0.0290539 -0.0359072 -0.0262366 -0.00169278 -0.0110742 -0.0151486 0.000624529 0.00216922 0.0046871 0.00470752 0.0117872 0.00794546 0.00976968 0.00123711 0.00882009 0.00867628 0.0094805 0.00811674 -0.00680586 -0.00284036 0.0066889 -0.000391402 0.0125436 0.02097 0.00526472 -0.00616515 0.00918233 -0.00577621 -0.0453588 -0.0430979 -0.0120949 -0.00499941 -0.0217195 -0.00996494 -0.00510526 -0.00652555 -0.0084928 -0.00280843 0.00310585 0.00597329 0.000872883 0.00958763 0.00634791 0.00679933 0.0136119 -0.00217848 0.0122229 0.0161319 0.00761856 -0.0040524 0.0163123 0.00580964 -0.0137131 -0.00360198 0.0216366 -0.018599 -0.070533 -0.0146981 -0.000994472 -0.0339357 -0.031644 -0.0190011 -0.014303 -0.0157028 -0.0115214 -0.00436054 0.0027154 0.00781712 0.00721649 0.00247423 0.00917817 0.00234354 0.000604131 -0.00132523 0.00311147 -0.0114277 -0.019228 -0.0104491 0.00379121 0.0219656 -0.00470198 0.0173484 0.0056034 0.00538749 -0.0254941 0.0110064 0.00852924 -0.0174978 -0.00709642 -0.0239888 0.00238393 0.00865546 0.00478773 0.000148654 0.00867133 0.00571651 0.00350515 0.000824742 0.00185567 0.00242955 0.00256052 -0.00222833 -0.00217568 -0.00789429 -0.00722106 0.00880951 0.0114747 0.00231301 -0.00588326 -0.0101889 0.00934955 0.0202799 0.00812957 0.0293443 0.0132208 -4.24576e-05 0.000901379 -0.00422649 0.0165697 0.0240906 0.0149197 0.00325584 0.00768837 0.00015843 0.00103093 0.00474227 0.00628866 0.00177647 0.00601906 -0.00106268 0.00782468 0.0317571 0.0205519 0.0253016 0.0145416 -0.0163472 0.00645825 0.008967 -0.00605212 0.00526998 0.0243161 0.0123974 -0.0156909 -0.000797675 -0.00173793 0.00332246 0.0107708 0.0104834 0.00216396 0.00386392 0.00270855 0.00577746 0.00804124 0.00670103 0.00474227 0.00344265 0.000281581 0.00807075 0.00942099 0.0271901 0.0324976 0.0190442 -0.0191074 -0.0390613 -0.0275789 -0.0106034 0.0102928 0.0115617 0.0137056 -0.0154773 0.000810704 0.00369998 -0.00180581 -0.00291294 0.000124112 0.0112075 -0.000460637 0.00993248 0.00483284 0.00853148 0.00618557 0.00206186 0.00958763 0.00577404 0.00766879 0.0058648 0.00563359 0.00678151 0.0105749 0.0126913 0.00933643 0.00477101 -0.000113801 0.00384462 0.00141491 0.00503151 0.0108748 0.000103388 -0.00250965 -0.00134932 -0.0017511 0.0015058 0.0100497 0.00294348 -0.000758019 0.00229079 0.00923405 0.00369885 0.00319588 0.00185567 0.0028866 0.00453608 0.00999896 0.00393714 -0.0010234 -0.00083807 0.00322529 0.0044968 0.00581983 0.00709047 0.00881155 0.00461791 0.0108389 0.014039 0.00581128 -0.00178151 0.000875221 0.00770538 0.00206152 0.00754186 0.00119424 0.0100879 0.00741299 0.00598094 0.000412371 0.00752577 0.00896907 0.00164948 0.00237113 0.00216495 0.00896907 0.0102062 0.0102114 0.00898117 0.000668064 0.00296258 0.00882792 0.00693568 0.00779787 0.00184452 0.00198736 0.00167149 0.00729757 0.0105411 0.00845283 0.00299807 8.39262e-06 0.00873975 0.00957362 0.00370276 0.00387906 0.000309278 0.00515464 0.0085567 0.00247423 0.00391753 0.00525773 0.00649485 0.00474227 0.00257732 0.00103093 0.00515464 0.00340206 0.00824742 0.00896907 0.00474227 0.00762887 0.00742272 0.000412461 0.00649485 0.00989691 0.000721649 0.00938144 0.00793814 0.00721649 0.00371134 0.00525773 0.01 0.00546392 0.00134021 0.000515464 0.0071134 0.00226804 0.00876289 0.00103093 0.0101031 0.0057732 0.00917526 0.00051351 0.00184421 0.00563118 0.00410793 0.00805483 0.000503439 0.00861734 0.00770641 0.00656548 0.00285883 0.00775005 0.00231487 0.00530684 0.00777929 0.0042112 0.00056868 0.00811571 0.00521164 0.000416319 0.00443299 0.000618557 0.00608247 0.00958763 0.00391753 0.00463918 0.00505155 0.00886325 0.00288558 0.000527308 0.00588573 0.00681605 0.0009142 0.00967376 0.00502041 0.0066582 0.00565871 0.00932475 0.00120014 0.00520967 0.00526151 0.00278659 0.00854906 0.00675289 0.010994 0.00921391 0.00423594 0.00129489 0.000154754 0.0037856 0.00989691 0.0056701 0.00969072 0.000618557 0.00226642 0.00978715 0.00847732 0.0030686 0.00323547 0.00914545 0.0108383 0.0103366 0.00773428 -0.000406573 -0.000630832 0.00454078 0.0020701 0.0047157 -0.00154973 0.00468965 0.00192477 0.00769162 0.011139 0.0113683 0.00644967 0.0098191 0.00877252 0.00639574 0.00453965 0.00762887 0.00587629 0.00494845 0.00690189 0.00216333 0.00207269 0.0007463 0.00324919 0.00913111 0.0108429 0.00538315 0.00251034 -0.00217064 0.00248882 0.00324762 0.00591058 0.00581986 0.000726323 0.00705191 0.00816082 0.00320334 0.0068929 0.0102508 0.00410842 0.0104868 0.00120636 0.0102966 0.00868745 0.00588183 0.00917526 0.0028866 0.00546558 0.00265487 0.00187896 0.00360622 0.0017548 0.00928425 0.0122224 0.0132732 0.00336132 0.00158302 0.00194796 -0.00411139 0.00132037 -0.0107128 -0.00096483 -0.00108176 -0.000567727 -0.00051195 -0.00366235 0.00425235 0.00288038 0.00303545 0.00197749 0.00657655 0.00636323 0.00340721 0.00453608 0.000618223 0.00204971 0.00512549 0.00756618 0.00141427 0.009345 0.00780252 0.00647043 0.00430542 0.000983263 -0.00210394 0.000939021 -0.00424252 -0.0127392 -0.0106051 -0.0110573 -0.00583886 -0.0100139 0.00203911 0.00120749 -5.17708e-06 0.00299181 0.00945793 0.00418228 0.00819878 0.00964198 0.00496949 0.00402062 0.00420537 0.00376557 0.00560638 0.00253402 0.00683964 0.0087829 0.0122043 0.00872763 0.00246661 -0.00661563 -0.0120397 -0.0106168 -0.0182535 -0.0106101 -0.00509542 -0.00883404 0.000146634 -0.00274691 0.00726648 0.00473203 0.000965845 0.00597343 0.00591703 0.0107228 0.00255883 0.00666862 0.00516945 0.00999171 0.00360763 0.00978377 0.00984067 0.000735203 0.0136146 0.0103646 0.00942032 0.00321265 -0.0014459 -0.0120548 -0.0109671 -0.00653535 -0.0157933 -0.0163262 -0.0062222 -0.0118857 -0.00252607 0.0068047 -1.399e-05 0.0115332 0.00202802 0.00305773 0.0114922 0.00532699 0.00916239 0.000218016 0.000838521 0.00309278 0.0026704 0.00891042 0.00882783 0.00721625 0.0145045 0.00886173 0.00550398 0.0122057 0.00124727 -0.00164593 -0.00228536 0.00110043 -0.00839693 -0.00980427 -0.0157695 -0.0146595 -0.00721221 -0.00710574 -0.000734885 0.0120562 0.0118412 0.000463932 0.0134074 0.00635496 0.00666654 0.00069261 0.00428453 0.00793814 0.00740137 0.00889049 0.00814243 0.00478689 0.0149683 0.0150298 0.0100443 0.00398465 0.000727843 -0.000605088 0.00240389 6.667e-06 -0.00339772 -0.000394409 -0.00316735 -0.00481868 -0.0084352 -0.00126007 0.00933072 0.0143902 0.00748007 0.00184793 0.0031534 0.00162508 0.00966257 0.0102767 0.00270268 0.00762887 0.000390385 0.00837126 0.00618341 0.0101395 0.0199968 0.016476 0.0112295 0.00342466 0.0103358 0.0100998 0.0051873 0.00921773 0.0077964 0.00043732 0.00267328 -0.00602408 -0.00149064 0.00472505 0.00203653 -0.00213949 0.0011772 0.0116003 0.00694061 0.002893 0.00840511 0.00409254 0.00660014 0.00360825 0.000356267 0.00501095 0.0090828 0.0108182 0.0171389 0.00556677 0.00283662 0.00831248 0.00651451 0.00714558 0.00843648 0.0109569 0.00329783 -0.000659275 0.00930708 0.00185298 -0.00425746 0.00228793 0.006454 0.0010751 0.00135783 0.0119877 0.00650318 0.00523503 0.000315158 0.00642557 0.00866157 0.0043299 0.00344858 0.0013867 0.00718774 0.0127002 0.0176775 0.0118981 0.00330119 0.00569911 -0.000909461 0.00149481 -0.000224935 0.00271962 -0.00185053 -0.00556339 -0.00498219 -0.0104123 -0.00768127 -0.010427 -0.00113304 0.0081149 0.00420401 0.00459912 0.00808313 0.00379675 0.00701636 0.00906779 0.00740143 0.00546392 0.00916133 0.00149203 0.00847114 0.00731811 0.013611 0.00235236 -0.00384045 -0.003353 0.00333904 -0.00648139 -0.000891467 -0.00800227 -0.00923816 -0.00603834 -0.00389206 -0.00995709 -0.00835847 -0.00528658 -0.000685574 -0.0010888 -0.00499923 0.0152963 0.00811163 0.00315293 0.00670865 0.0032518 0.00948428 0.00505155 0.000692755 0.00976748 0.00812196 0.00726061 0.00374492 0.00882569 0.00451391 0.00272537 -0.0045389 -0.00757156 -0.000211283 -0.00269696 -0.00264548 -0.00305287 -0.00515517 -0.00325619 0.00326847 -0.00205438 -0.00779076 -0.00861437 0.00344758 0.012597 0.00832026 0.00110907 -0.00137174 0.00871174 0.000112488 0.00298969 0.00761243 0.000763711 0.00718452 0.00686821 0.0139823 0.00770793 0.0016078 0.00012367 -0.00446599 -0.00791787 -0.00615574 -0.00743152 -0.00419029 -0.00228423 -0.00709616 -0.00425364 -0.000770455 -0.0060751 -0.00439082 -0.00503882 0.00714391 0.00688674 0.0153049 0.00132265 0.00224824 8.76949e-05 0.00529716 0.00505155 0.00958054 0.00984307 0.00338576 0.0054846 0.00949194 0.00813408 -0.00587281 -0.00388719 -0.00167908 -0.00360812 -0.00399978 -0.00834903 -0.00941534 -0.00467786 -0.00757151 -0.00693084 -0.00272978 -0.00395314 -0.00345111 -0.00169439 0.00654659 0.00666209 0.00316378 0.00904621 0.00168622 0.00525751 0.00991671 0.00371134 0.00329841 0.00129671 0.00113089 0.00692572 0.000646368 0.0048502 -0.0041649 0.00258901 -0.00446448 -0.00565251 -0.00840998 -0.00811871 -0.00335421 -0.00775206 -0.0102727 -0.00421144 -0.00860967 -0.00231653 -0.000947476 -0.000906755 0.00228759 0.0041196 0.00196481 0.0054817 0.00501685 0.00507729 0.00114274 0.00948454 0.00569427 0.00500485 0.00203352 0.00186847 0.00517595 0.00294404 -0.00210624 -0.00103187 -0.00852693 -0.0111318 -0.0144029 -0.00702123 -0.0130691 -0.00311396 -0.0120278 -0.0126739 -0.00142184 -0.000649496 3.80663e-05 -0.000208259 -0.00259189 0.00254745 0.00607674 0.00722709 0.00628505 0.0038308 0.00833194 0.00783505 0.00814965 0.00686076 -0.00202901 -0.0042554 -0.00273759 -0.00454125 0.000810039 -0.00254705 0.000364896 -0.00598222 -0.00099061 -0.00884508 -0.00267724 -0.00852743 -0.00518674 -0.00424473 -0.00423145 0.00252183 -0.00494522 0.00295431 0.00632999 -0.00184081 0.00507388 -0.00165501 0.000899625 0.00660426 0.00618557 0.00237113 0.00113094 0.00134491 0.00144568 0.00243165 0.00493755 -0.00161313 -0.00952298 -0.00798912 -0.00421066 0.000920049 0.00180834 0.000866886 -0.00180479 -0.00568254 0.00284546 -0.00335656 -0.00396076 0.000896997 0.00258585 0.00997411 0.00467259 0.0037422 0.00652626 0.00184777 0.000110172 0.0076962 0.0102062 0.00319588 0.0071134 0.00432106 0.00148431 0.0024836 0.00527216 0.00405147 -0.00617483 -0.00332661 -0.0121921 -0.010689 -0.00683985 0.00157076 0.00097074 -0.00799271 0.0022002 0.00415241 0.00125747 0.00190174 0.00715318 0.0120851 0.00746649 0.00153679 0.00498814 0.00741912 0.0078147 0.00797292 0.00113402 0.000206186 0.00659794 0.00800738 0.00279619 0.00278833 0.00234444 0.00744829 -0.00281601 -0.0033521 0.000111931 -0.00404707 -0.0120095 0.003275 0.000878854 0.00112548 0.0100491 0.00314187 0.0121162 0.00734188 0.00483428 0.00935908 0.00490667 0.00388599 0.00617924 -0.00031924 0.00205882 0.00516916 0.01 0.00649485 0.0056701 0.00648148 0.00252259 0.00817968 0.00643609 0.00142806 -0.00157336 0.00419568 -0.00124949 0.000242788 0.00510262 0.00243996 0.00214261 0.00176571 0.00737793 0.00466729 0.00365126 0.00222527 0.00362827 0.00489813 0.00676771 0.00485457 -0.000660881 0.00785603 0.00899118 0.00967694 0.0042268 0.00453608 0.00608247 0.00205981 0.000132682 0.00967098 0.000178801 0.00560534 0.00186195 0.00518393 0.000891364 0.00448684 0.00369816 0.00602694 0.0086852 0.00105089 0.0108957 0.0128989 0.012468 0.0122006 0.00303946 0.000310183 0.00186094 0.00397953 0.00776668 0.00317868 0.00122471 0.00483052 0.00824742 0.00350515 0.00793814 0.00701031 0.00412312 0.00660238 0.00217735 0.00537861 0.0078037 0.00601489 0.00855588 0.00599824 0.00248984 0.00246177 0.0040756 0.0018283 0.000661374 0.00419167 0.0120233 0.00781769 0.00918001 0.00499657 0.0056074 0.0025193 0.00765896 0.00564136 0.00742268 0.00876289 0.00515464 0.00876289 0.00443299 0.0056701 0.00659794 0.00628866 0.00237792 0.00920553 0.00462274 0.00337032 0.00169576 0.00532534 0.00131636 0.00361269 0.000827129 0.00239863 0.00359045 0.00912298 0.0016688 0.00472976 0.0052616 -0.000408303 0.00521542 0.00518328 0.0093996 0.000721649 0.00814433 0.00319588 0.00896907 0.00628866 0.00134021 0.00907216 0.00474227 0.00123711 0.00195876 0.00134021 0.00793814 0.00515464 0.00804124 0.00969072 0.00917526 0.00185593 0.00896965 0.00268041 0.00371134 0.00381443 0.00309278 0.00216495 0.00773196 0.0085567 0.00134021 0.01 0.0057732 0.0071134 0.00783505 0.00443299 0.00917526 0.00721649 0.00731959 0.00886598 0.00216495 0.00979381 0.00845357 0.00741418 0.00761298 0.00114275 0.00373855 0.00271817 0.0069652 0.00818065 0.00856176 0.00496076 0.0038425 0.00641479 0.0102564 0.00502626 0.00242238 0.00563645 0.00543208 0.00699465 0.000822769 0.00886598 0.00556701 0.00474227 0.00340206 0.0028866 0.00298969 0.00536082 7.57874e-06 0.00113695 0.00794676 0.00639339 0.00514949 0.00573404 0.00455336 0.00395791 0.00589159 0.00571743 0.00486636 -4.82043e-05 0.000361289 0.00563551 -0.000751489 0.00455763 0.00283327 0.00883287 0.00286965 0.00193039 0.00810584 0.0019759 0.000111312 0.00804124 0.00876289 0.00391753 0.00628866 0.00144169 0.00496597 0.00527685 0.00168832 0.00523031 0.00615404 0.00317045 0.00439269 0.000566746 -0.00189451 -0.00160457 0.00678897 -0.00113655 0.000779009 0.00164342 0.0051542 0.000486938 0.00219212 0.000499953 0.00285777 0.001843 0.00611525 0.00943052 0.00397399 0.00567488 0.0014433 0.00690722 0.00896907 0.00617835 0.000202988 0.00317541 0.00889308 0.00510247 0.00785638 0.00647538 -0.000268997 0.00339947 0.000186192 0.00401653 -0.000363983 0.00136025 0.000635951 0.00465118 0.00344113 -0.000588614 -0.00296011 0.00418556 0.00591392 0.00404562 0.00516389 0.00354175 0.0050609 0.00831969 0.0100893 0.00453608 0.00597938 0.00194993 0.006375 -0.00029269 -0.000982665 -0.00354783 -0.00426665 0.0024667 0.00263548 0.0046852 0.00457658 0.00786647 -5.98922e-05 -0.000104366 0.000448388 0.00376847 0.00815274 0.00147845 0.00322554 -0.00119519 0.00360539 0.00392096 -0.00122292 0.000297029 0.00123229 0.00717758 0.00781194 0.00948454 0.00195842 0.00381058 0.00227752 0.00561104 0.00509041 0.0024101 0.00345394 0.00225673 0.00321409 0.0062076 0.00156707 0.00517831 -0.00265784 0.00490298 0.00491809 7.39045e-05 0.00493099 0.00499561 0.00709052 0.00701568 -0.00288764 0.00388846 0.00642384 0.0067848 0.00188948 0.00359885 0.0092742 0.0071134 0.00194081 0.00153356 0.00540286 0.00376473 -0.00217685 0.00294626 0.00237323 0.00832632 0.00689231 0.00810015 0.00807776 0.00682834 0.00433869 0.000570713 -0.000646172 0.00148696 0.000190569 0.00209135 0.00824504 5.16769e-06 0.00220512 0.00184698 0.00525163 0.00202143 0.00530392 0.000893172 0.00495179 0.00425659 0.00587566 0.00263188 0.00427216 0.00506128 0.00773758 -0.000817572 0.000596999 0.0037472 -0.000255236 -1.06194e-05 0.00500327 0.00496797 -0.0020222 -0.000410256 -0.00730452 0.00081026 -0.00933403 0.00222188 -0.00153213 0.000548679 0.00658619 0.00505711 0.00656828 0.0118196 0.0104685 0.00715902 0.00574288 0.00670103 0.00316609 0.00833893 0.0032939 0.000625272 -0.000827125 0.00016324 -0.00493252 0.00550305 0.00493924 -0.00273525 0.00219815 -0.0022912 -0.00232562 -0.0100808 -0.00701959 -0.00819596 -0.00298416 -0.00245124 0.00382291 0.00457178 0.000334746 0.00493638 0.00472725 0.0121581 0.00390669 0.00118788 0.00947023 0.000103093 0.000911349 0.00870837 -0.000285049 0.00541682 0.0024148 5.64784e-05 0.000192111 0.00842337 0.00587057 0.00465699 0.00619572 0.00128855 -0.000643115 -0.00516708 -0.00745 -0.00531672 -0.011537 -0.00396001 -0.00443507 -0.00518395 0.00547518 0.00404989 0.00271632 0.00618173 0.00788942 0.000471957 0.00765124 0.00536082 0.00546918 0.00932764 0.00202306 0.0050977 0.00539703 0.00130518 0.00160447 -0.000722257 0.0076701 0.00321268 -0.00197672 -0.00323991 -0.0022488 -0.00678154 -0.00560274 -0.0137531 -0.00641132 -0.00322853 0.000286019 -0.000413543 -0.00123178 0.00699664 0.0107876 0.0072012 0.00308668 0.00127684 0.00662028 0.00783505 0.00390646 0.00335685 0.0022983 0.00496429 -0.000532782 0.00242246 -0.00313923 -0.0021261 -0.000548343 0.00105589 -0.000134034 -0.00438165 -0.00295879 -0.00273215 -0.0121238 -0.00570921 -0.00589123 -0.000323104 -0.000558853 -0.00213999 -2.75216e-05 -0.000224295 0.00237569 0.00895511 0.00237655 0.00294017 0.0031861 0.00958763 0.00608167 0.00200594 0.00174525 0.00179003 -0.00113782 0.00193337 -0.00452811 -0.0026004 -0.00602288 0.00170349 -0.00240471 -0.000339798 -0.00362227 -0.0113757 -0.00993176 -0.0111257 -0.0119261 -0.00185112 -0.00461706 -0.00210397 0.00230421 0.00505299 0.00337418 0.00056331 0.00393449 0.00565762 0.00701146 0.000206186 0.00945775 0.00162651 0.00542526 0.00189997 0.00268435 0.00265301 -0.00177983 -0.00364629 -0.00260633 -0.00409202 0.00278484 -0.00083805 -0.00365108 -0.00650962 -0.0143222 -0.0123745 -0.0127386 -0.000475282 -0.00679915 -0.00627072 -0.00098137 0.00329619 0.00509594 0.00780062 0.00361128 0.00582916 0.0002062 0.00164948 0.000977318 0.00499106 0.00579836 0.0073057 0.00209977 -0.00288044 -0.000341327 -0.0010341 -0.00176825 -0.000245281 0.0038157 -0.00230732 -0.00627906 -0.00890147 -0.0124249 -0.00582427 -0.00674276 -0.00783552 -0.010494 -0.00442637 0.000830419 -0.00248175 0.00153195 0.00751691 0.00824541 0.00764961 0.00604294 0.00731959 0.00945645 0.000720376 0.000381034 0.0043632 0.00483752 0.00372749 0.00151015 0.000803524 0.000267088 -0.00485827 -6.82801e-05 -0.00516173 -0.00669755 -0.0106713 -0.00409908 -0.00383476 -0.000194221 -0.00882713 -0.00733726 0.000482056 0.00489785 0.00550918 0.00162727 -0.000827943 0.000345907 0.00813854 0.00275367 0.00845361 0.0052465 0.00714296 0.00443269 0.0102285 0.00610268 0.00158365 0.00552332 -0.00451381 0.00346743 0.00240012 0.00551964 0.00201987 -0.00492425 -0.00440457 -0.00848645 -0.00549228 -0.00858847 -0.00557139 -0.00924626 -0.00621884 0.00219538 0.00460257 0.00838835 0.00451674 0.00439171 0.00216591 0.00616506 0.00103093 0.000721063 0.00327175 0.00448727 0.00718532 0.00811368 0.0011706 0.00834673 0.00688276 0.00627427 0.00630877 0.00995361 0.00106573 -0.00697352 -0.00760532 -0.0057739 -0.00257331 -0.00879654 0.0011181 -0.00315409 0.00100536 -0.00349525 0.00246404 0.00666014 0.00582138 0.000352785 0.000473321 0.00893026 0.00958763 0.00753174 0.00372159 -0.00174741 0.0021244 -0.00109488 0.00352548 -0.000355623 0.00590735 0.00940382 0.00712275 -0.000863465 0.00133177 -0.0022716 -0.00287087 -0.00219704 -0.00566397 -0.00496988 -0.00271498 0.0024873 -0.00575989 -0.00269685 0.00199221 0.000789 -0.000537552 0.00304637 0.00866558 0.0100276 0.00659794 0.00650211 0.0020095 0.00521893 0.00196009 0.00244495 -0.00209128 0.000320753 0.00723113 0.00278763 0.00225286 -0.00194889 0.000352471 -0.00763857 -0.00426174 -0.00880222 -4.03392e-05 -0.00149134 0.00217736 -0.0044925 -0.00178575 -0.00689709 0.00495832 0.000548164 0.00762912 0.00734219 0.00792187 0.00350515 0.00237113 0.00102625 0.00310215 0.00151795 -0.00135189 -0.0018179 0.00412603 -0.00160499 0.00562338 0.010437 0.00543197 0.00129299 -0.00501419 -0.00206614 -0.000800141 0.000574486 -0.00472694 0.00278262 0.00357211 -0.00890702 -0.00885527 -0.00839872 0.00077378 0.00329937 0.00571455 0.00799183 0.0040483 0.000412371 0.00237113 0.00938144 0.00736323 0.0071622 0.00127832 0.00343465 -0.00343923 -0.00398104 0.00571041 -0.000892666 0.00723087 0.00128142 0.00319459 0.00190698 -0.00425909 -0.00289191 0.00803761 0.00519802 0.0039185 -0.00336837 -0.0083312 0.000819776 0.0018607 0.00124398 0.00397465 0.00746655 0.0102564 0.00701031 0.00515464 0.00505155 0.00030456 0.00823433 0.005783 0.00508804 0.00587971 -0.00118857 -0.00287657 0.00198818 0.000223953 0.00577804 0.00553624 0.00510383 0.005527 0.00604225 0.00655015 -0.00552716 -0.00441432 0.00289772 -0.00401763 0.00156458 0.00705879 0.00936024 0.00721724 0.00947381 0.00714106 0.00814433 0.000618557 0.00546392 0.00119451 0.00072323 0.00645019 0.00323356 -0.00291868 -0.00245915 0.00202684 0.00141776 0.000488875 0.00598825 0.00636738 0.00896425 -0.00252842 0.0028331 0.00201905 0.00279034 -0.00190815 0.00333148 0.00404112 0.00940104 0.00526401 0.00254669 0.000880408 0.00447751 0.00990326 0.00886598 0.00814433 0.00608247 0.0068033 0.00379561 0.00170809 0.0064133 0.00385927 0.000567669 0.00643636 0.00709351 0.000823568 0.00267171 0.00271508 0.00450164 0.00687382 0.00602803 6.42245e-05 0.00213475 0.000607678 0.00343557 -0.000262597 0.00773921 0.000265981 0.00382161 0.0023848 0.000213109 0.00774024 0.00845361 0.00515464 0.000824742 0.00350515 0.00381491 0.00176342 0.00223348 0.00378222 0.00336237 0.00753913 0.00860237 0.00323404 0.00686454 0.000401457 0.00691442 0.00931682 0.00517542 0.0039962 0.00589903 0.00186154 0.00501709 0.00356337 0.00914417 0.00767736 0.00831196 0.00732108 0.00546392 0.00340206 0.00134021 0.00298969 0.00247423 0.00360825 0.00154639 0.00113402 0.00443091 0.0102028 0.000927737 0.00802082 0.00884008 0.00648404 0.00688094 0.00534612 0.00354178 0.00644567 0.00427741 0.00886657 0.000102754 0.00473148 0.00988852 0.00939524 0.00487113 0.00911644 0.00522243 0.00938144 0.0057732 0.000206186 0.00206186 0.00381443 0.00474227 0.00525773 0.00979381 0.00824742 0.000721649 0.000515464 0.00618557 0.00989691 0.00865979 0.00701031 0.00329897 0.00422291 0.00648632 0.00474227 0.00762887 0.00701031 0.00505155 0.00680412 0.00773196 0.00845361 0.0071134 0.00103093 0.00742268 0.00525773 0.00350515 0.00134021 0.00845361 0.00216495 0.00268041 0 0.000206186 0.000618557 0.00360764 0.00883226 0.0059288 0.00738802 0.00411212 0.00352353 0.00525128 0.00510309 0.00967339 0.00490975 0.00797274 0.00419691 0.00430792 0.00840918 0.00446248 0.000349144 0.00758234 0.00601058 0.000925886 0.00783505 0.00453608 0.00134021 0 0.00546392 0.0101031 0.00618557 0.00938352 0.00670229 0.00259859 0.00507265 0.00381089 0.00187536 0.00307198 0.00977842 0.00976761 0.00879574 0.00444381 -0.000324961 0.00152104 0.00614667 0.00343011 -0.000980958 0.00218464 0.00940233 0.00136863 6.49374e-05 0.00960086 0.000234715 0.00414084 0.00474227 0.00226804 0.00515464 0.00814433 0.00557609 0.0034049 0.0027314 0.00116071 0.00923286 0.00806763 0.00347373 -0.00577806 0.00412496 0.00453555 0.00607837 -0.00221462 -0.00258373 -0.00787777 -0.00969287 -0.00700401 0.0011014 0.00291182 -0.00136373 -0.00113338 0.00330229 0.00569907 0.00868158 0.00719132 0.0100053 0.000618557 0.00443299 0.00340206 0.0059024 0.00826858 0.00768728 0.00847966 0.00291074 0.00252881 0.00505489 0.00494224 0.0104422 0.0103604 0.00376275 -0.0117955 -0.00528941 -0.00372851 -0.0126989 -0.00194704 -0.00362294 -0.00310671 -0.00343371 -0.0012503 0.0074208 0.00446739 0.00663457 0.00519907 0.00257545 0.0101443 0 0.01 0.00183812 0.00326715 0.00916824 0.0186284 0.0220495 0.0121497 -0.004766 -0.0056921 -0.00209839 -0.00254266 0.00647024 -0.00634072 0.00375037 0.00528252 0.0136616 -0.0018793 0.00686033 -0.00667462 -0.00203121 -0.0137095 -0.00396794 0.0070796 0.00799386 0.00613524 0.00843208 0.00785065 0.00896907 0.006496 0.00260949 0.0089135 0.0072671 0.0179936 0.0148857 0.0135777 0.0101495 0.0130941 0.0167375 0.0153641 0.0209986 0.0233621 0.0319699 0.0436861 0.0194213 -0.000637283 -0.00677815 3.85434e-05 -0.00838082 -0.00488563 -0.00240517 0.0012179 0.003668 0.00391359 0.000466067 0.00272321 0.00494845 0.00540439 0.00945831 0.0079175 0.00882239 0.0131623 0.010208 0.0131521 0.00937974 0.0169832 0.0250164 0.0360765 0.0327362 0.0209524 -0.00286581 -0.00339915 0.0137675 0.00401466 -0.00682204 -0.0252718 -0.0115017 -0.00512322 -0.00761989 -0.00850309 -0.000746483 0.00822588 0.00359721 0.00461731 0.00784351 0.00958976 0.00159501 0.00573445 0.0100138 0.0081681 -0.00523695 -0.00167322 0.00502419 0.0130208 0.00588424 -0.00813367 0.00264986 -0.00526276 -0.0276407 -0.0226842 0.00538029 0.0016545 -0.00635839 -0.0328512 -0.0129439 -0.00976549 -0.00389449 -0.00210044 0.000997998 0.00506711 0.000905374 0.00652076 0.0057732 0.000352017 0.0100515 -0.00112754 0.0117676 -0.00315485 -0.00237111 0.0139691 -0.0104553 -0.0282591 -0.0418958 -0.0152104 0.00220182 0.00479369 -0.00761631 0.000399127 0.0031661 -0.0148166 -0.0134289 -0.0309707 -0.0255609 -0.0211177 0.00392355 -0.0056499 -0.00110161 0.00057958 0.00409216 0.00714442 0.00969072 0.00227082 0.00739599 0.0089566 -0.000150201 -0.0185885 -0.0162479 -0.0298166 -0.042418 -0.0548724 -0.0418235 0.00318993 0.0163567 0.0351075 0.0076647 -0.00704235 -0.00350651 -0.00786423 -0.0151595 -0.0295169 -0.0360538 -0.0265383 -0.0145325 -0.00923209 -0.00350321 0.00581225 0.00473781 0.00447804 0.00134021 0.00174134 0.00362014 0.00650381 -0.00053314 -0.0152822 -0.0352164 -0.0399599 -0.0385196 -0.0378908 0.00223159 0.047696 0.0421403 0.033258 -0.000880796 0.00133265 -0.00765571 -0.0155625 -0.0206507 -0.0299618 -0.0280727 -0.0321227 -0.0172235 -0.0103234 -0.00667712 -0.000486436 0.00644393 0.00987927 0.00804124 0.00867433 0.00369453 0.00117373 -4.69975e-05 -0.011799 -0.0214664 -0.0137752 0.0119176 0.0143681 0.0638912 0.0604035 0.0363328 -0.0014452 -0.00508325 -0.0101512 -0.0175065 -0.0179115 -0.0077182 -0.0110349 -0.0178681 -0.0253497 -0.0038729 -0.00637417 -0.005914 0.00493652 0.00147455 0.00858764 0.00484536 0.00454699 8.17293e-05 0.000504218 -0.00114101 -0.0034549 -0.00183566 0.0045803 0.0210954 0.0326841 0.0490572 0.0205745 0.021497 0.00286741 -0.00182807 -0.0337066 -0.0259647 -0.0149481 0.00792416 0.0144321 -0.0178033 -0.0200731 -0.00540925 -0.000210181 -0.00150075 0.00473034 0.00676666 0.00907189 0.0056701 0.00730174 0.00511576 0.00433096 0.0015155 -0.00349381 0.000380007 0.0161477 0.0160782 0.0197719 0.0110627 0.00303272 0.00150196 -0.0049224 -0.0119069 -0.00977465 -0.0371651 -0.0312046 -0.0142617 0.00400623 0.0216516 0.0160104 0.00756318 0.0123718 0.00542732 0.00748642 0.00172038 0.00206185 0.00597938 0.00450434 0.00023174 0.00222234 0.00168202 0.00135677 0.0143351 0.00922636 -5.78031e-05 0.00117641 -0.00336517 0.00594846 0.00698096 -0.00761035 -0.00692967 -0.00716925 -0.00630665 -0.0133999 -0.0163398 0.00133604 -0.00711886 0.0102764 0.0177391 0.0220646 0.0101624 4.67195e-05 0.00500657 0.00824843 0.00298969 0.0100885 0.0036554 0.00194358 0.00357095 -0.0101602 -0.0142752 -0.0131858 -0.0216678 -0.023471 -0.0145737 -0.0149566 -0.0118115 -0.00962062 -0.00375285 -0.0046943 -0.0058722 -0.017333 -0.00039595 0.00664616 -0.0247029 0.00330393 0.025781 0.0363658 0.0181389 0.00209424 0.00731843 0.00190299 0.00247423 0.00776476 0.00192374 0.00935464 -0.00295837 -0.0120376 -0.0261644 -0.0276781 -0.0363155 -0.0533057 -0.0500539 -0.0289741 -0.0398562 -0.0250952 -0.0242227 -0.0126843 -0.00735981 -0.0118752 -0.00962018 0.00381695 -0.00877151 0.00096198 0.0120784 0.0356593 0.0160906 0.00707405 0.0102081 0.00236162 0.00484536 0.00268141 0.0042351 0.00757976 0.00464988 -0.0144744 -0.0307508 -0.0276619 -0.0325323 -0.0468857 -0.0343767 -0.0353055 -0.0388333 -0.0374758 -0.0252286 -0.00800428 -0.00652188 -0.00621807 -0.0163608 0.00197875 -0.00483123 0.00495534 0.02292 0.0346643 0.0156047 0.0082436 0.00204048 0.0030021 0.00237113 0.00847191 0.00181985 0.00810734 0.00911431 -0.0159625 -0.0285759 -0.0155292 -0.0203357 -0.0147945 -0.00952319 -0.0170741 -0.0154339 -0.00920565 -0.0151724 -0.00417223 0.0094645 0.00394531 -0.0130625 -0.0126798 -0.00121176 -0.0012637 0.0175797 0.0194558 0.00813276 0.0015466 0.00808085 0.00442798 0.00113402 0.00464459 0.00636184 0.00998851 0.00317486 -0.0134983 -0.0138428 -0.0120096 0.00699673 0.00930813 0.00953699 -0.00237666 -0.00813386 0.00234602 0.000941501 0.00940048 0.00639865 0.00347721 0.00148799 0.00180407 0.00479903 0.00132624 0.0254808 0.0122573 0.00943336 0.00995564 0.00362472 0.00298969 0.000309278 0.00218865 0.00587754 0.006432 0.00392518 0.000264095 -0.0124419 -0.0126293 -0.004929 0.000421252 0.00855677 -0.0055205 -0.00382669 0.0021965 0.00643078 0.00232656 0.006274 0.00565708 0.00452141 0.0106387 0.000608748 0.0106759 0.00777015 0.00425571 -0.000780971 0.00459415 0.00523043 0.00979381 0.00608247 0.00587629 0.00957745 0.00702087 0.00260684 0.00206797 -0.00139641 -6.37353e-05 -0.0160387 -0.0100944 -0.00602754 -0.018166 -0.0156823 -0.00720674 -0.0263086 -0.0114336 -0.00593325 -0.00338186 0.00861978 0.00284819 0.0130649 -0.00439185 0.0032512 0.000943352 -0.00230219 0.0103318 0.0083119 0.00628866 0.00185567 0.0057732 0.00889138 0.0107188 0.00443886 0.000672441 0.0045317 0.012521 0.00264427 0.00943764 0.00551206 0.00875669 -0.0102561 -0.00475977 -0.0107592 -0.0158175 -0.0089103 -0.0033418 -0.0033642 0.0040881 0.00596134 -0.00044273 -0.0039977 0.00358138 0.00252663 0.00254708 0.00832176 0.00329897 0.00494845 0.00835052 0.0023229 0.00416686 0.0104616 0.013556 0.0081127 0.021902 0.0277316 0.0155965 0.019044 0.0170743 0.0154278 -0.0022845 -0.00116578 0.00554177 0.00308552 0.0102618 0.0113631 -0.00578348 -0.0140082 -0.00675074 0.00122966 0.0046014 0.00144811 0.0014291 0.00732344 0.0102062 0.00670103 0.00814433 0.00578814 0.00370434 0.0064967 0.0101518 0.0173639 0.0165174 0.0256733 0.0207128 0.0184782 0.0177128 0.0207998 0.0200708 -0.00116924 0.0129807 0.000219347 -0.00620882 0.0017763 -0.000603604 0.00334703 0.00765547 0.0040866 0.00134884 0.000109191 0.00618492 0.00412293 0.00783505 0.00206186 0.0101031 0.00237113 0.0102069 0.00161708 0.00326447 0.00638161 0.000962537 0.00303714 0.00548977 0.00631332 -0.000966612 -0.00118513 0.00343592 0.00351705 0.00664007 0.00543569 0.0045089 -0.00207807 -5.91124e-05 0.00440383 0.0106722 0.00238718 0.0035397 0.00350478 0.00628866 0.00216495 0.00309278 0.00865979 0.000721649 0.00845361 0.00536082 0.00948454 0.00875826 0.00483754 0.00836289 0.0093361 0.00593073 0.00135125 0.00109522 0.000783665 0.00230558 0.00954226 0.00900997 0.00577388 0.00736223 0.00227393 0.00388228 0.00230558 0.00784917 0.00405596 0.00484531 0.00938144 0.00319588 0.00762887 0.00690722 0.00804124 0.00865979 0.00546392 0.00134021 0.00103093 0.00113402 0.00309278 0.00134021 0.00824742 0.00670103 0.00628866 0.00185567 0.00954325 0.00248017 0.000412371 0.00402062 0.00804124 0.00103093 0.00618557 0.0057732 0.00835052 0.00608247 0.0042268 0.00587629 0 0.0057732 0.00484536 0.00886598 0.00731959 0.0057732 0.00876289 0.0101031 0.000103093 0.00412125 0.00824029 0.00685353 0.00493438 0.00250256 0.009005 0.00285815 0.00247185 0.00516892 0.00727921 0.00327752 0.000877829 0.00278474 0.00840262 0.0050648 0.0091139 0.00361871 0.00488968 0.00246995 0.00154639 0.00164948 0.0056701 0.00113402 0.00773196 0.0042268 0.0014433 0.00969267 0.000928904 0.00802755 0.00922204 0.00839078 0.0026995 0.00793684 0.00919973 0.00052157 -0.000497794 0.00327892 -0.000866227 0.0052312 0.00110613 -0.00145128 0.00443329 -0.00471385 0.00522063 0.00460738 0.00129319 0.00318156 0.0105201 0.0104633 0.00515464 0.00742268 0.000927835 0.00597938 0.00494885 0.00505112 0.000396264 0.00156594 0.0076686 0.00850831 0.00638798 0.00365911 0.0111092 0.0117219 0.00647528 0.00261765 -0.0109949 -0.0131297 -0.00663063 -0.0125767 -0.00774983 -0.00613267 0.000601137 0.00237953 0.00240928 0.00219422 0.00586029 0.00385216 0.00519863 0.00443299 0.00206186 0.0056701 0.00216549 0.00989309 0.00631581 0.000466807 0.0060842 0.0034023 0.00948077 0.00446998 0.00117658 0.00584853 0.0100537 0.0043393 -0.00439948 -0.008477 -0.0235141 -0.0225992 -0.0105062 -0.00932184 0.00279423 0.00669619 0.00169475 0.0076007 0.00622443 0.0101579 0.0027005 0.00108957 0.00154639 0.00350515 0.0010247 0.00403666 0.00569041 -0.00475013 -0.000545664 0.00291042 -0.00515388 -0.00413187 -0.0134102 -0.0119894 0.00962555 0.0443655 0.0424379 0.0369144 0.0146246 -0.00858047 -0.012595 -0.0179973 -0.0164868 -0.00642939 -0.00528615 0.00236779 0.00213006 0.00118781 0.00014298 0.000445825 0.00917526 0.00206167 0.0062627 0.00263185 0.00623593 -0.0108772 -0.0119272 -0.0161818 -0.0176799 -0.015017 0.00404154 0.00828133 0.0336592 0.0737268 0.0593997 0.0574731 0.0433019 0.00783568 -0.0128589 -0.0174684 -0.0244416 -0.019001 -0.00866434 0.00383135 -0.00255714 0.0039998 0.0100493 0.00677174 0.00206186 0.00990116 0.00712001 0.000665269 -0.00604723 -0.0101911 -0.0158672 -0.0240119 -0.0234793 0.000427692 0.0116939 0.045484 0.0349081 0.0431162 0.027148 0.0184311 0.0220924 -0.01552 -0.0299338 -0.0295309 -0.0329867 -0.0183806 -0.0161307 -0.00809205 0.0019666 0.00725173 0.00616031 0.00622889 0.00176562 0.009278 0.00722153 0.00374016 0.000889151 -0.0132726 -0.0203897 -0.0184456 0.00580928 -0.00583192 0.0344792 0.0226306 -0.00388121 -0.00336145 -0.00496539 -0.0164378 -0.0390318 -0.00431933 -0.00837423 -0.00153868 -0.028247 -0.0307238 -0.0229676 -0.00874259 -0.00482458 0.00581082 0.00548698 0.00159498 0.00783505 0.00861697 0.00660651 0.00382291 0.00234053 -0.00482659 -0.01666 0.000810367 0.0251483 0.00564758 0.0147514 -0.0277604 -0.047102 -0.0374838 -0.0390164 -0.0475111 -0.0273102 0.0349966 0.0171139 0.0135655 -0.0213989 -0.0230771 -0.022714 -0.00374197 0.00614638 0.00754385 0.00377865 0.00796238 0.0014433 0.00999408 0.00724828 -0.000304071 0.00688277 -0.000336175 -0.00204209 0.0159568 0.0188277 0.019363 0.0123092 -0.0157933 -0.0307423 -0.00839923 -0.0280025 -0.0594839 0.014893 0.0404344 0.0267996 -0.00831546 -0.0124593 -0.0216284 -0.0148146 0.00559747 0.00572624 0.00423224 0.00997475 0.00567575 0.00319588 0.00931639 0.000934065 0.00496148 0.00228087 -0.00332188 -0.00740715 -0.00313555 0.0106222 0.024538 0.0173693 -0.00542395 0.00676683 0.0109915 -0.0415499 -0.00615007 0.0411724 0.0317708 0.0127174 -0.00398643 -0.0167588 -0.0268597 -0.0106462 -0.00337086 0.00373305 0.00337669 0.00619337 0.001461 0.00731959 0.00184467 0.003505 0.00789649 -0.00341617 -0.0125249 -0.016322 -0.0231643 -0.00264081 0.0210252 -0.0126108 -0.0299842 -0.0354241 -0.0380658 -0.0566231 -0.013236 0.035638 0.0175071 0.00793617 0.00295305 -0.0194683 -0.0131929 -0.00886344 -3.87652e-05 -0.0040115 0.00512106 0.00131682 0.000585919 0.00546392 0.00266391 0.00182548 0.00947537 -0.00654227 -0.00510227 -0.0150781 -0.0230492 0.000441856 0.0211159 0.00379895 -0.0135017 -0.0408805 -0.0264236 -0.0364331 -0.0200242 0.0247794 0.0114506 0.00422917 0.00109876 -0.0281425 -0.00662541 -0.00914522 -0.0099655 -0.00796466 0.00431077 0.00573428 0.00176825 0.00350515 0.00247737 0.00260755 0.00229563 0.00302014 -0.0186319 -0.0101667 -0.00786845 -0.00222308 -0.0106493 -0.0118535 -0.00788329 -0.0246866 -0.0114142 -0.0286393 -0.0239598 0.0260571 0.00891487 0.0127443 -0.0135996 -0.0329635 -0.0129491 -0.0124862 -0.0105357 -0.00769482 -0.00174477 0.00395706 0.00917545 0.00762887 0.00926706 0.00573845 0.00284602 0.0062749 -0.00315102 -0.00201905 -0.0110615 -0.00197393 -0.0153196 -0.0370423 -0.0224826 -0.0292814 -0.0151156 -0.0315793 0.00986664 0.0339855 0.00447041 -0.00369883 -0.0349489 -0.0336613 -0.0205693 -0.0138323 -0.0167513 -0.000148941 -0.0010844 0.00186586 0.00178172 0.000927835 0.0043313 -0.000108937 -0.000623702 0.00657005 -0.00347261 -0.0104578 -0.020744 -0.0117609 -0.0184852 -0.0178369 -0.02318 -0.00653772 0.00798585 -0.00557914 0.012731 0.0121327 0.00831464 -0.0132384 -0.0422349 -0.0296747 -0.0157943 -0.00690205 -0.0053414 0.000370477 0.00891932 0.00468512 0.0100521 0.0101031 0.00470797 0.00617986 0.00260687 0.00694638 -0.00553113 -0.0147421 -0.0219575 -0.0185726 -0.0193734 -0.0144633 -0.0198929 0.00344858 0.0371571 0.0127213 0.00870286 0.00340651 0.0087707 -0.0247861 -0.0595877 -0.0351159 -0.0275012 -0.0142895 -0.00334762 -0.000862678 0.00347542 0.00118541 0.0041346 0.00597938 0.00938175 0.00244694 0.00664486 -0.00161705 -0.0121522 -0.0099709 -0.0258354 -0.0219115 -0.0197411 -0.00392144 0.00546788 0.0168024 0.0227013 0.018513 -0.00184158 -0.0122078 0.00325628 -0.017979 -0.0397777 -0.0167052 -0.00788407 -0.00308464 -0.00370584 0.00609155 0.00812011 0.00886653 0.0065097 0.00742268 0.000348723 0.000583851 0.00270596 0.000570704 -0.0100448 -0.0148347 -0.0171025 -0.0166174 -0.00958018 0.0102908 0.0111708 0.0493165 0.0234862 -0.00543469 -0.0198568 -0.022382 0.0105662 0.00512778 -0.00603443 -0.00621993 0.00228708 0.0111871 0.00594226 0.0106033 0.00327932 0.00225973 0.00611369 0.00278351 0.00348978 -9.83351e-05 0.00810591 7.34034e-05 -0.00378885 -0.0134853 -0.00537019 -0.0168178 1.57329e-05 0.00949639 0.0270373 0.0390704 0.00911464 0.00594438 0.00295675 -0.0240871 0.00232811 -0.00380086 -0.0146835 0.00283058 0.000425364 0.0121762 0.00341474 0.00822541 0.00378536 0.000599857 0.00226804 0.00216495 0.00195969 0.00757467 0.00201671 -0.00144518 -0.00892987 -0.0128607 -0.0142126 -0.0156045 -0.00172648 -0.0207507 -0.0110966 0.0196044 -0.013746 0.00971059 -0.0122851 -0.0239288 0.00116925 -0.00822846 -0.0170902 -0.00493764 0.000354494 0.0180894 0.0172145 0.00663408 0.0101549 0.0021832 0.00917526 0.000206186 0.00783505 0.00456713 0.00535432 0.00421399 -0.0091779 -0.00583787 -0.00595206 0.00201616 -0.00556584 -0.0334359 -0.027505 -0.0083937 -0.00781861 0.0109811 -0.0213824 -0.0364279 -0.0169295 -0.00378854 -0.0251889 -0.0056265 0.0087746 0.0150594 0.0148631 0.0128741 0.0124362 0.0017752 0.00546392 0.00783505 0.00154639 0.00136959 -0.000402108 0.000655084 0.000632349 0.00410349 0.00663777 0.00626417 -0.00440234 -0.0151599 -0.00409613 0.00242134 -0.0101273 0.00392328 0.0091508 0.00763876 0.0225366 0.0123377 -0.00670888 0.0130913 0.0136317 0.019415 0.013495 0.0141366 0.0102394 0.00629058 0.00474227 0.00298969 0.00474227 0.000310637 0.000291258 0.00609896 0.000174648 -0.00279371 -0.00622271 -0.0125942 -0.0177918 -0.0233205 -0.0122111 0.0139464 -0.000489513 -0.00538396 0.0387241 0.0501258 0.0301029 -0.00409558 0.00399088 0.0132076 0.0153368 0.0144605 0.00413452 0.00682772 0.00238032 0.000468639 0.00134021 0.00340206 0.00958763 0.00640822 0.0020889 0.00199401 0.00729873 -0.00358713 0.00165191 -0.00599095 -0.00640703 0.000526463 -0.00885057 -0.0227534 -0.0122749 0.0192215 0.0359408 0.0241044 0.00429752 -0.000373338 0.00408453 0.0135576 0.0143194 0.00430454 0.00276706 0.00757952 0.00737085 0.00696855 0.00670103 0.00917526 0.00783505 0.000927835 0.00299098 0.00866221 0.00146673 0.00717026 0.00989491 0.00979248 0.00324693 0.00702491 0.0011309 0.00700979 0.00729422 0.0144582 0.0120432 0.0187785 0.0180152 0.0102583 0.00632525 0.0112726 0.0124778 0.00531564 0.0016591 0.000943775 0.00649485 0.000412371 0.00257732 0.000412371 0.00876289 0.00793814 0.000103093 0.000103093 0.00906672 0.00122872 0.00386977 0.004274 0.00809574 0.00607901 0.00406216 0.000964769 0.00909973 0.00547201 0.0055871 0.00815885 0.00282838 0.00699184 0.00942231 0.00189182 0.0020061 0.00166473 0.00548023 0.000206186 0.00649485 0.00113402 0.0042268 0.00216495 0.00824742 0.0043299 0.00762887 0.00597938 0.00773196 0.00783505 0.000721649 0.0101031 0.00546392 0.000721649 0.0101031 0.00546408 0.0092787 0.00618557 0.00175258 0.000206186 0.00412371 0.00938144 0.00443299 0.00680412 0.00391753 0.00814433 0.00216495 0.00958763 0.0043299 0.00896907 0.000515464 0.0042268 0.00845361 0.000103093 0.000515464 0.00412371 0.000721401 0.00142569 0.00533437 0.00740533 0.00927192 0.00471918 0.00350504 0.000829443 0.00390738 0.00397673 0.00481617 0.00608269 0.00654596 0.00689718 0.0095482 0.00604816 0.00168297 0.00243013 0.00773039 0.000309278 0.00907216 0.00113402 0.00309278 0.00845361 0.00237113 0.00206186 0.00196462 0.000208492 0.00330443 0.00600805 0.00721139 0.00971106 0.00894413 0.00560346 0.000956635 0.00288469 0.00409816 0.00624058 -0.000981755 0.00514808 0.00589214 0.00843821 0.000452342 0.00422451 0.00823039 0.0074641 0.0037846 0.00125257 0.00959634 0.0102062 0.00701031 0.000824742 0.00608247 0.01 0.00568275 0.00701549 0.00284383 0.00532779 0.00191871 0.00103365 0.00599294 0.00193174 0.00158108 0.00210278 -0.00032836 0.00712474 0.00353879 0.00725914 0.00106099 0.00524965 0.00598453 0.000496227 0.00756692 0.00362742 0.00945529 0.00262428 0.00793223 0.00257039 0.00773196 0.00278351 0.0028866 0.00608209 0.00494643 0.00521405 0.00623235 0.00708318 0.00220932 -0.000353176 0.0057562 0.00502263 0.00190473 0.00450359 0.0060408 0.00286677 0.00128101 0.000640051 0.00378458 0.00213753 -0.000328668 -0.00131428 0.00743702 0.00553998 -0.000223619 0.00363693 0.00545131 0.00122787 0.0084406 0.00989691 0.00845361 0.00752184 0.00417511 0.00692034 -0.00136542 0.00133358 0.0086511 0.00136569 -0.000981548 0.00579479 0.00602554 -0.00280942 0.000436965 -0.00483633 0.00522707 0.00407001 0.00435958 0.00873652 0.000273827 0.0107442 0.00228219 0.0013391 0.00304257 0.00921638 0.00364291 0.00337031 -2.13522e-05 0.0028866 0.00350525 0.00783106 0.000965787 0.00301039 0.00178667 0.00652899 0.00678532 0.00207521 -0.00162367 -0.00232518 -0.00250656 -0.00512532 -5.23046e-05 0.00298481 -0.00274602 -0.00220343 0.00284471 0.004313 0.00118822 0.00960189 0.0078361 0.0118075 0.00573447 0.00700805 0.00353189 0.00372249 0.00285843 0.00185567 0.00298942 0.0072533 0.000454562 0.00187707 0.00286087 0.00133797 0.00765332 0.000625969 0.00572356 0.00258773 0.00258853 -0.00133665 -0.00512526 -0.00727495 -0.0048199 -0.00797104 -0.0030332 -0.0051815 -0.000216903 0.00352182 0.00709876 0.0132562 0.0143016 0.00832821 0.00356025 0.00309961 0.00987782 0.00880832 0.00329915 0.00483334 0.00263327 -0.000623157 0.00423989 0.00955569 -0.00123072 0.00137968 -0.0040567 -0.00423013 -0.00378857 0.00254255 -0.00269793 0.00107145 -0.00276492 0.00250807 -0.00667294 -0.00743391 -0.00524734 0.00413225 0.00753324 0.00771305 0.0105916 0.00462874 0.0114064 0.0025637 0.00919127 0.00927835 0.00582742 0.00824283 0.000490282 0.00593803 0.00588958 0.0070772 0.00344015 -0.00240361 0.00311359 -0.00242167 -0.00426677 0.00326725 8.27677e-05 -0.00149364 -0.00474504 -0.0071739 -0.012557 -0.00927152 -0.00318706 0.00296973 0.00745956 0.0131459 0.0157228 0.011468 0.00427335 0.00629218 0.00102356 0.00969072 0.00759736 0.000595873 0.00671756 0.004533 0.00585493 0.00174311 0.00159463 0.0058052 -0.00216423 0.00513647 0.00359638 0.00351739 -0.00351659 -0.00314639 -0.0029297 -0.0085483 -0.00317183 -0.00654681 -0.00648625 -0.00703635 -0.00327535 0.00620221 0.0145506 0.00369639 0.0019023 0.00436398 0.00268044 0.00773196 0.0054707 0.00289017 0.00641478 0.00720272 0.00421279 -0.000315907 0.00299246 0.00572075 0.00427887 8.34528e-05 0.000654634 -1.45343e-05 -0.00589279 -0.00757877 -0.00975286 -0.00240168 -0.0111941 -0.00410449 -0.00240254 -0.00482413 -0.00347717 0.00433896 0.0105471 0.00493903 0.00567428 0.00472373 0.0022689 0.00556701 0.00751679 0.00935148 -0.000644862 0.00429056 -0.00455058 4.15971e-05 0.00522344 0.0018147 0.00173753 -0.00419521 0.00309378 -0.00243908 -0.000314923 -0.00738598 -0.000897621 -0.0128834 -0.011312 -0.00739806 -0.00151302 -0.0104909 -0.00185778 -0.00197143 0.00799736 0.00408751 0.00503792 0.00437591 0.00937885 0.00628866 0.000823564 0.0084882 0.000967077 -0.000167113 0.00192017 0.00531922 -0.000894552 -0.00508139 -0.00555802 -0.00387804 -0.00457447 -0.00299888 0.000838988 -0.00090993 -0.0114694 -0.0116466 -0.0138312 -0.00820809 -0.00230903 -0.00902589 -0.00675833 0.0042672 0.00809689 0.00223617 0.00861862 0.000384249 0.0086646 0.00690722 0.00710272 0.00951498 -0.000393043 0.00453646 0.0089318 0.00139318 -0.00289261 -0.000754389 -0.00053084 -0.00340173 0.00298331 0.00331651 0.000304333 -0.0106787 -0.00969098 -0.0093566 -0.00895438 -0.0109793 -0.0064474 -0.00418597 -0.00598783 0.00110436 0.0102228 0.00400238 0.00314901 0.00138759 0.00402068 0.00329897 0.00410155 0.00540391 0.00648582 0.0113515 0.00610123 0.00736074 -0.000844372 -0.00498983 -0.00550139 -0.00438232 -0.000951715 -0.00242966 -0.00251606 -0.00134099 -0.00632091 -0.0112724 -0.0133888 -0.00543095 0.000701262 0.00035122 -0.000459277 0.00137669 0.0101329 0.00746081 0.000898078 0.0102395 0.0063246 0.00226804 0.00885591 -0.000100037 6.49782e-05 0.00797212 0.0108353 0.00344913 0.0048025 0.000560873 -0.00486187 -0.00386676 0.00289542 -0.00069829 -0.00193242 -0.00228445 0.000435219 -0.00446193 -0.00139884 -0.00684632 -0.005774 -0.00639025 -0.00370037 0.00547059 0.00349179 0.00636298 0.00890432 0.00154515 0.00241269 0.00329897 0.00710921 0.0100275 0.00831415 0.00826596 0.00286846 0.00612401 0.00801702 0.00468665 0.00362245 -0.00261213 0.00296467 -0.00304148 -0.00460275 3.31727e-05 0.0014333 -0.00422472 -0.00599268 -0.00130831 -0.00352723 0.000339806 0.00599836 0.00903821 0.012157 0.0116845 0.000301409 0.00976883 0.00737645 0.0101031 0.00309263 0.00860348 0.00469599 0.010618 0.0102313 0.00929729 0.00681084 0.00682511 0.0039356 0.00606022 -0.000266862 0.00491032 -0.00407696 -0.00261374 -0.0076256 -0.00813561 -0.000152712 -0.00424409 -0.00139038 -0.00194458 0.00261891 0.00237948 0.0121242 0.00871947 0.00326273 0.00507537 0.00321464 0.00659794 0.00083085 0.0100012 0.00304702 0.00180601 0.00913706 -0.000559503 0.00454029 0.00137709 0.00372135 0.00678578 0.000247691 0.00445063 -0.00129449 -0.00577818 -0.00997814 -0.000411541 0.000191034 0.00176299 0.000447543 0.0032265 0.00390258 0.00867231 0.00408268 -0.000348127 0.00384505 0.00221076 0.000417639 0.00371134 0.00248511 0.00164756 0.000400354 0.000741518 -0.000401383 -0.000474762 0.00412165 0.00695287 0.0101027 0.00630898 0.002653 0.00435497 -0.00661946 -0.00475334 -0.00138076 -0.00639577 -0.000647536 -0.00625856 0.00241154 -0.00233607 -0.00158457 0.00267138 0.000784314 0.00470448 0.00588895 0.00725768 0.00474227 0.0014433 0.00824548 0.00875582 0.00748931 0.0068261 -0.000247665 -0.000904867 -0.00103306 0.00883663 0.00919876 0.0034791 -1.89845e-06 -0.00243757 -0.00709778 -0.00623032 -0.0078082 -0.00415969 -0.000892907 0.00288635 -0.00509323 0.00147479 0.00637407 -0.000899937 0.00710308 0.00626139 0.00355495 0.00246523 0.00195876 0.00680412 0.0042268 0.00540819 0.00719197 0.00316062 0.00265845 0.00830403 0.00575795 0.00809133 0.008456 0.00387068 0.00683891 0.00396009 -0.00434214 0.00278223 -8.55032e-05 0.000707817 0.00553785 0.00151514 0.00604309 0.00257341 0.00602873 0.00279598 0.0087822 0.00626081 0.00872519 0.00671378 0.0071134 0.00412371 0.00319588 0.000112127 0.00606574 0.00645719 0.00381225 0.000401068 0.00171165 3.77608e-05 0.00255075 0.00548895 0.00890483 0.00926374 0.00871996 0.00243823 0.00579327 -0.00130631 -0.00197731 0.00384801 -0.00373967 -0.00119644 0.000679563 0.00549497 0.002333 0.00512226 0.00329847 0.00927719 0.00381443 0.0043299 0 0.00472635 0.00757743 0.00211518 0.004752 -0.000757908 0.0041564 0.00582956 0.00165635 0.00697233 0.00768634 0.00424579 0.00041494 0.00784444 -0.000241 -0.00271874 -0.00214925 0.000117945 0.00546348 0.00131227 0.00667043 0.00788839 -1.92368e-06 0.00517832 0.00395286 0.00134663 0.00381443 0.00845361 0.00381443 0.00597781 0.00834799 0.0026308 0.00548125 0.00112805 0.00292756 -0.000364252 0.00595026 0.00224363 0.00697368 0.00431239 0.00536253 0.00206873 0.000803534 -0.000720842 6.64649e-05 0.00221812 0.00762698 0.00350327 0.0053723 0.00302943 0.00981512 0.00532591 0.00237706 0.00145039 0.00154639 0.00226804 0.00814433 0.0057732 0.00267958 0.00914988 0.00723481 0.0089162 0.00654799 0.00475959 -0.000488153 -0.00122551 0.00609949 0.00608202 0.00600169 -0.000375005 0.00732391 0.000845463 0.00749805 0.00279068 0.00735799 0.0006622 0.000659129 0.00145308 0.0098601 0.00257463 0.00443299 0.00876289 0.000824742 0.00546392 0.00391753 0.00298969 0.00896907 0.00175258 0.00927666 0.00586967 0.00589963 0.0068657 0.00854372 0.00818764 0.00432834 0.00571156 0.00506094 0.00188664 0.00168166 0.00601278 0.00274249 0.00320964 0.00789356 0.00669505 0.00548224 0.00788633 0.00520873 0.00443299 0.00484536 0.00979381 0.000309278 0.00278351 0.00835052 0.000824742 0.00391753 0.00546392 0.00257732 0.00886598 0.00329897 0.00917526 0.000206186 0.0085567 0.00731959 0.00505771 0.00197226 0.00989691 0.00123711 0.00979381 0.00443299 0.00525773 0.00824742 0.00958763 0.00247423 0.00917526 0.00793814 0.00762887 0.00938144 0.00752577 0.00721649 0.00701031 0.00762887 0.00515464 0.00216495 0.00659794 0.00443379 0.00795878 0.00991914 0.00934998 0.00297286 0.00771111 0.00277269 0.00292042 0.00725219 0.00185081 0.00238898 0.00966389 0.00394454 0.00958642 0.00166134 0.000832992 0.000299153 0.00741736 0.00319526 0.0101031 0.00989691 0.00546392 0.00814433 0.00206186 0.0071134 0.0043299 0.0102058 0.00886591 0.00569968 0.0056319 0.00897806 0.000586032 0.00721732 0.000831207 0.00648298 0.00937147 0.000854018 0.00473975 0.00350002 0.0105926 0.00530318 0.00538677 0.00555833 0.00103773 0.00081161 0.0031981 0.00288687 0.00374915 0.00744612 0.00546392 0.00845361 0.00649485 0.00886598 0.0036109 0.000514403 0.00858243 0.00100562 0.00300875 0.00117677 0.00373539 0.00525144 0.00538344 0.00660885 0.00181807 0.00659653 0.00954187 0.00281016 0.00124403 0.00847711 0.00322664 0.00918321 0.00131769 0.00323615 0.0061325 0.0049906 0.00214728 3.51891e-05 0.00502535 0.00556701 0.00195876 0.00814433 0.00959651 0.00299095 0.00245536 0.0066831 0.00130324 -5.45717e-05 0.00541588 0.00520527 0.0070556 0.0071446 0.000458969 0.00423207 0.0055764 0.00246638 0.00794474 0.0037201 0.00680648 -0.00180684 0.008653 0.00159323 0.00397819 0.00476419 0.0029297 0.00585419 0.00499039 0.00779379 0.00804124 0.00969072 0.0102067 0.00320786 -5.60664e-05 0.000210969 0.00628355 -0.00222744 -0.00302735 -0.000260237 0.00013358 0.00398478 0.00170751 0.00126129 -0.00101214 0.0016297 -0.000569595 0.00288897 0.00349465 -0.00116046 0.00064139 0.0062319 0.00640184 0.00428559 -0.000309873 0.00827187 0.0067547 0.00817643 0.00298969 0.00701017 0.00927477 0.00246851 0.00747913 -0.00135031 0.000768606 0.00472784 0.0035748 0.00447194 -0.000328837 0.00279173 -0.00577672 -0.000770475 -6.65317e-05 -0.00225763 0.00371115 0.00147662 -0.00480454 -0.00387053 0.00326928 -0.000706288 0.00273607 0.000740281 0.00612554 0.00819333 0.00365874 0.0059292 0.00701031 0.0097891 0.00716008 0.00431396 0.00142067 0.00179257 0.00378916 -0.000942422 0.0055971 0.00326173 0.000153563 -0.000474704 -0.00297225 -0.00371377 -0.00609811 -0.00614956 0.00360398 -0.00192244 0.00206996 0.000550704 -0.00366579 -0.00320568 0.00484508 0.0075499 0.0055216 0.00340502 0.00535031 0.00371322 0.00247032 0.000102833 0.000546535 0.0098543 0.00102322 0.00569644 0.00396004 -0.00172083 0.00246513 0.00501853 -0.00567047 -0.00514303 -0.00460009 -0.00605372 -0.00291438 0.00480835 -0.00515656 0.00103637 -0.00244221 0.00262655 0.00458328 0.00448231 0.00237337 0.00312834 0.00325062 0.00029691 0.00528624 0.00319357 0.00195876 0.00793271 0.00300049 0.00327887 0.00715709 0.000982129 0.00401928 0.0010808 0.000200837 -0.00279606 -0.0034436 0.00139433 0.00265586 -0.00318727 0.00466085 -0.000802218 0.000878061 -0.00883823 0.00223031 0.00165628 0.00132776 0.00454604 0.00527355 0.00129532 0.00418304 0.00903205 0.00631088 0.00306917 0.00319588 0.00958922 0.00426012 0.00462293 0.00807252 0.00655776 0.00612086 -7.37482e-05 0.00485662 -0.00465475 -0.00308467 0.0031757 0.00160411 -0.00315756 0.000749842 -0.00513555 -4.86243e-05 -0.00271944 -0.000677155 -0.000987845 -0.00340383 -0.000782099 0.00634508 0.00430479 0.0079506 0.00354503 0.0101873 0.00924992 0.00742268 0.00289943 0.00532544 0.000455656 0.00377993 0.00173237 0.00659111 0.00192141 -0.00152478 0.00174033 0.00230808 0.000218423 0.00193352 0.0028748 -0.00188957 0.00401874 -0.0068982 -0.00824992 0.000266559 -0.0080522 0.00210763 -0.00189866 0.00939338 0.00317954 0.00935456 0.00829768 0.000336563 0.00475235 0.00350515 0.00682641 0.00401964 0.00672467 0.00503117 0.00723285 0.00631437 -0.00194208 0.00384898 -0.00150933 -0.000167361 -0.00592586 0.000695181 -0.00213712 -0.00449964 0.00462711 -0.00363989 -0.0104035 -0.000942301 -0.00885493 0.00340613 0.00451109 0.0012836 0.00112019 0.00575256 0.00975133 0.00673029 0.000536815 0.00103093 0.00835545 0.00825323 0.00780804 -0.00117437 -0.00168845 -0.000542959 0.000913231 -0.0020357 0.00259381 -0.000466214 -0.00493501 0.000136002 0.00405262 0.00220663 0.00395027 -5.71114e-05 -0.00309761 -0.00863587 0.000515935 0.00087835 2.45393e-06 0.000450114 0.00376751 0.000846478 0.000359656 0.00799757 0.000107042 0.00247423 0.000193876 0.00843306 0.00744416 0.000334464 0.00226809 0.00253417 -0.000602277 -0.00497915 0.00331765 -0.00241442 -0.000779477 0.00230994 0.000386919 -0.00280504 -0.00315253 -0.000386007 -0.00379427 -0.00491494 -0.00344958 -0.00423613 0.000982879 -0.00152606 0.00709394 0.00512619 0.0083035 0.00966879 0.00381448 0.00268041 0.00121279 0.00409929 0.00316739 0.00448076 0.00139844 -0.000163142 -0.00423558 -0.000178876 -0.00558465 0.00377009 0.00401066 0.0028813 0.000375378 -0.0012906 0.00100296 -0.00830783 -0.00338504 -0.00596709 0.00187729 -0.00370895 -0.00443559 -0.00305567 0.0040734 0.00538824 0.00270669 0.00278559 0.00865174 0.00938144 0.00328329 0.000533618 0.00668415 0.00311903 0.0012898 0.00243794 -0.00539002 -0.00194863 0.00559431 0.0040174 0.00559772 -0.00334836 -0.000272364 0.00025215 -0.00516354 -0.00111686 -0.00219732 -0.00336503 -0.00174469 -0.00843179 0.00365952 5.99157e-05 0.000790799 0.000103383 0.00797515 0.0100892 0.00874998 0.0014433 0.0051492 0.00142718 0.00604161 -0.00145123 0.00278933 -0.00182664 0.000990074 0.0009032 0.00126678 0.00375654 0.000705362 0.000735845 -0.001334 0.00106099 -0.00775676 -0.00383304 0.00136193 -0.00543233 -0.00800571 -0.00366019 -0.0039007 -0.000311834 -0.00207823 0.008729 0.00391074 0.00910541 0.00433643 0.00340206 0.0084533 0.00642378 0.00468367 0.00636738 0.00811089 0.00524221 -0.0029941 0.00497347 -0.000122849 0.00741025 -0.000236154 0.00390951 0.0023701 -0.00628071 -0.00305398 -0.00966854 -0.00231919 -0.00765699 -0.00639671 0.00424972 -0.00382093 -0.00146305 0.00708223 0.0021089 0.00239453 0.00511213 0.00221285 0.00298969 0.00268729 0.00672071 0.000280024 -0.000319274 0.0069241 0.00215778 0.00044348 -0.000222856 0.00313291 0.00554794 -0.00121692 0.00262011 0.00158218 0.000347773 -0.00695214 -0.00274372 -0.00636023 -0.0039486 -0.00431667 0.00083767 -0.00585588 0.00501468 0.00311781 0.0049484 0.00621608 0.00243635 0.00446185 0.00360825 0.00153453 0.00511455 0.00801781 0.00241399 -0.00163393 0.00760724 0.00745216 -0.00246695 -0.00275179 -0.00157215 -0.00491673 -0.000845364 -0.00331502 -0.00533361 -0.00935383 -0.00687359 -0.00668189 -0.00618157 -0.000781811 -0.00490677 -0.000295329 0.000939792 0.00658946 0.00357852 0.00921905 0.00759221 0.0101031 0.00195876 0.00803744 5.08244e-06 0.00355101 0.00407694 0.00385576 0.0100136 0.0044127 -0.00452267 -0.00542653 -0.000703797 -0.00183986 -0.00434816 -0.00259971 -0.00732353 -0.00474453 -0.00467008 -0.00718578 0.00328976 -0.00404616 0.00397989 -0.00405177 0.00221264 -0.000577335 0.00377816 0.00562817 0.00135262 0.00474227 0.00773196 0.00412371 0.00578371 0.00496618 0.00656829 0.00767383 0.00984068 0.00449807 0.00476748 0.000606159 9.35367e-06 -0.00661589 -0.00713606 -0.00545208 -0.00917203 -0.00858699 -0.00634723 0.000530699 -0.000241634 0.00297965 0.00711255 0.00517611 0.00600794 0.00250909 0.00338795 0.00575723 0.0101118 0.00814433 0.00649485 0.00587629 0.00411909 0.00963046 4.56813e-06 0.00416448 0.00579285 0.000434253 0.0046771 0.000251394 -0.00223284 0.00184065 0.00517854 0.00188698 0.000987385 5.19725e-05 0.000481256 0.00276816 0.00151708 0.000339781 0.000192032 0.00496281 0.00630994 0.00622017 -9.35959e-05 0.00896222 0.0061025 0.00639175 0.00659794 0.00793814 0.00052045 0.0095123 0.00701604 0.00460921 -0.000579995 0.0039851 0.000942424 0.00221164 0.00667476 0.00578858 0.00760622 0.0016415 0.00113154 0.00491745 0.00187716 0.000398156 0.00687557 0.00922607 0.0017736 0.00825075 0.0082532 0.00113092 0.00811102 0.00876308 0.00763116 0.00329897 0.00608247 0.00247423 0.00907143 0.00246923 0.000233642 0.00253444 0.00770323 0.00489496 0.00342196 0.00137431 0.00446385 0.00210992 0.00528626 0.00300805 0.00297918 0.00169768 0.00626202 0.00316903 0.00364329 0.000961517 0.00678121 0.00220244 0.00447753 0.00751668 0.00816468 0.00185708 0.00659963 0.00185567 0.00690722 0.00247423 0.00463918 0.000103057 0.00235785 0.00304752 0.00402685 0.00761749 0.00397324 0.000801181 0.00483942 0.00511519 0.00135398 0.00691304 0.001662 0.00671958 0.00383013 0.00296037 0.00857392 0.00361336 0.000769632 0.00168509 0.00269833 0.0016375 0.00412458 0.00247423 0.00845361 0.00195876 0.000824742 0.00195876 0.00979381 0.00402062 0.0056701 5.09726e-06 0.00196904 0.00494237 0.00319193 0.00690868 0.00460912 0.00317224 0.00677102 0.00692014 0.00237878 0.00269743 0.00669989 0.00584043 0.00584921 0.00277513 0.00664406 0.000297837 0.00147983 0.0070292 0.00216495 0.00443299 0.00896907 0.00443299 0.00793814 0.00474227 0.00134021 0.00814433 0.00628866 0.00546392 0.00412371 0.00835052 0.00247423 0.00680412 0.0028866 0.00989691 0.00630759 0.00550536 0.00989691 0.00752577 0.00958763 0.00793814 0.00680412 0.00164948 0.00453608 0.000927835 0.00783505 0.00845361 0.00175258 0.00804124 0.00804124 0.00175258 0.000103093 0.00742268 0.00412371 0.000103093 0.00969072 0.00536751 0.00951133 0.0102905 0.00452373 0.0061885 0.00737879 0.00187238 0.00238495 0.00686971 0.000630091 0.00537422 0.0102379 0.00724692 0.00513959 0.0021434 0.00760566 0.00961611 0.000336684 0.00164365 0.00865979 0.0085567 0.00556701 0.00154639 0.00268041 0.00731959 0.00670103 0.00288229 0.00309101 0.0009145 0.0056278 0.00435577 0.00734721 0.00968897 0.00717577 0.00376525 0.00608482 0.0066979 0.00931168 0.00778868 0.00801139 0.00811389 0.00785035 0.00433655 0.0107456 0.00974749 0.00323582 0.00177402 0.00523943 0.00242198 0.00608247 0.00360825 0.00690722 0.0042268 0.00134001 0.00411465 0.00593279 0.00624588 0.00762693 0.00764773 0.00175154 0.0088267 0.00607333 0.00425111 0.00547282 0.00488181 0.00764732 0.00811795 0.0111781 0.00269388 0.00669584 0.0100486 0.00103307 0.00252204 0.00391951 0.00883137 0.00315013 0.00589419 0.000315748 0.00463918 0.00804124 0.0071134 0.00897031 0.00731465 0.00675307 0.00659696 0.0120359 0.00620642 0.00572642 0.00792024 0.00392151 0.00152611 0.0017641 0.00868067 0.000739022 0.00407885 0.00416496 0.00209311 0.000266645 0.00351352 0.0030239 0.00584896 0.00218625 0.00649982 0.00586636 0.00554771 0.0100248 0.00578728 0.00412371 0.00453608 0.00928723 0.00499413 0.0087369 0.00254187 0.00294425 0.01116 -0.00137783 0.00362408 -0.00115813 0.000463201 0.00194191 -0.00659378 0.000560164 0.00238658 0.00445523 0.0013959 -0.000148273 -0.0034544 -0.00474335 -0.00345725 0.00024917 0.000346016 3.42872e-05 0.000775729 0.0093552 0.00559182 0.000824742 0.000206423 0.00867099 0.00813787 0.00172641 0.00126609 0.0108063 0.000995162 -0.00183234 0.00431562 0.00445479 0.000690474 -0.00486798 -0.00409576 -0.0124198 -0.00748687 -0.00289945 -0.00738248 -0.00351311 -0.00481457 -0.00762564 -0.0025819 -0.00503025 -0.00159206 0.00209663 0.0067094 0.000353122 0.000898346 0.00443299 0.00207331 0.00771091 0.00179645 0.000881159 0.0100653 0.00685011 -0.00179543 0.00402927 -0.000561722 -0.00540963 -0.00478987 -0.0073039 -0.00801707 -0.00673209 -0.00872224 -0.00372071 -0.0111508 -0.00767658 -0.00847552 -0.0030634 -0.00337104 0.000993683 1.20272e-05 -0.00214946 -0.000531202 0.006007 0.000460114 0.00142546 4.40515e-07 0.00168947 0.00683257 0.00219261 0.00528153 -0.000306687 -0.00400563 0.00412097 -0.00883316 -0.00718334 -0.0106239 -0.0051822 -0.00800671 -0.00560975 -0.00251051 -0.00385397 -0.00334366 -0.00651168 -0.00191932 -0.00327031 -0.00709673 -0.00684452 -0.00634526 0.000654215 0.000844002 0.00123728 0.00368512 0.00402062 0.00590075 0.00901044 0.00121503 0.00198864 0.0050708 -0.000450779 -0.000923102 -0.00045872 -0.0116366 -0.00816983 -0.0106894 -0.00130909 0.000295866 -0.00333082 0.00407911 0.000799111 -0.00799004 -0.00286328 0.000240583 -0.000345331 -0.00878387 0.00483053 -0.00020049 -0.00384225 0.00166013 0.00592514 0.00411837 0.00876289 0.000288263 0.0056681 0.00398387 0.00274288 -0.000934131 0.00371954 0.00217184 -0.0056584 -0.0143309 -0.0162944 -0.00708437 0.000370791 0.00277528 -0.000407406 0.00297073 -0.00727194 -0.00379441 2.95866e-05 0.00100597 -0.00203813 -0.00208344 -0.00508029 0.00633697 0.00329455 0.00678416 0.00798678 0.000669369 0.00804124 0.00834076 0.00451035 0.00267671 -0.00198699 -0.00487273 0.00284663 -0.00286606 -0.00812149 -0.00785369 -0.0119115 -0.0044009 -0.00613002 -0.00393759 -0.0015246 -0.000314391 -0.00312108 -0.00425804 -0.0047197 -0.00553874 -0.00216937 0.00205847 0.00479524 0.00988056 -0.000726706 0.00888223 0.00234905 0.00152069 0.00443299 0.00234491 0.00375837 0.00489952 0.00246383 -0.000944916 0.00262253 -0.00905897 -0.0107442 -0.0050816 -0.00977367 0.00110993 0.00294853 -0.001248 0.00347118 -0.0127566 -0.00278228 -0.0030213 -0.00245578 -0.00206617 -0.00441097 0.00633718 0.00700337 0.00285544 0.00249093 0.00587407 0.00849265 0.00260217 0.00350515 0.00916305 0.0088585 0.00579732 0.000998273 0.00337154 -0.00468009 0.000494773 -0.00793758 -0.00646475 -0.0057753 -0.00697762 -0.00468576 -0.00612913 0.0013582 0.000135368 -0.00574915 -0.00451502 0.00570315 -0.00112449 0.00213853 0.0034695 0.00741029 0.00857747 0.00552647 0.00861462 0.00549232 0.00516774 0.00721649 0.00876002 0.00405605 0.00165743 -0.000964187 0.000184397 0.00743985 0.00367762 0.00516234 0.00149568 0.00464541 0.00117851 0.00341083 0.00652318 -0.0020553 0.00321843 -0.00210588 -0.00200882 0.00743977 2.33865e-05 -0.00462523 0.000152157 0.00245317 0.00619263 0.00823296 0.00554355 0.00526203 0.00989707 0.00865979 0.00545706 0.00456982 0.0104738 0.00397854 0.00403249 0.00361179 0.00327137 0.00817805 0.00849305 0.00263948 -0.00167024 0.00423707 -0.000593327 -0.000900791 0.00291865 1.43032e-05 0.00928833 0.00260517 0.006069 -0.0055271 -0.0012363 0.00820702 0.00418739 0.000588665 0.00901625 0.00832666 0.00266255 0.00742268 0.0075257 0.00387126 0.00289044 0.00629335 0.00825697 0.00728872 0.00398593 0.00573805 0.0060771 0.0074168 0.00395441 0.00400044 0.00251981 0.00313757 0.00321801 0.000767498 0.00774157 0.00682525 0.00244771 -0.00524345 0.00662867 0.00614219 0.00535131 0.00647469 0.00227207 0.00862677 0.00862944 0.000309278 0.000824667 0.00750695 0.00295608 0.00544252 0.00878518 0.00706809 -0.00164812 0.00595513 -0.000682629 -0.000767494 0.00187549 0.00547272 0.00400993 0.00525669 0.000567897 -0.00259239 0.00447269 0.00342621 0.00401153 -0.00231966 0.00110606 -0.000620068 0.00594019 0.0104892 0.00248339 0.00694223 0.00910801 0.0102062 0.00360847 -0.000196687 0.0106302 0.00462766 0.00865961 0.00779188 0.00220764 0.0021326 0.00240966 0.000242505 -0.0032943 -0.00475369 0.00180779 0.00568424 0.0014576 0.00785375 0.00638819 0.00314467 0.00759146 0.0021457 0.0057017 -0.000897144 0.0022634 0.00791531 0.00773389 0.00280627 0.0044471 0.00237113 0.00700342 0.000850009 0.000909437 0.00478884 0.00985447 0.00513573 -0.00354134 -0.00488138 -0.00500958 0.00483728 -0.00328152 0.00326501 0.00680657 0.00201836 0.00147786 0.00568557 0.00584555 0.000858714 -0.000517531 0.00108533 0.001699 0.00671153 0.000784162 0.00465764 0.0107684 0.00403336 0.00159334 0.000103093 0.00203775 -4.38143e-05 0.0086559 0.00458152 0.0119164 0.005521 0.00298191 -0.000466218 -7.37856e-05 0.00456376 0.000548615 0.000105864 -0.00497286 -0.00140309 0.00405344 0.00283644 -0.00168214 -0.000399232 2.77659e-05 -1.81215e-05 -0.000311493 0.00344633 0.00618782 0.00220732 0.0103103 0.00435445 0.00195876 0.00381443 0.0086633 0.00918403 0.00439264 0.0052189 0.00520408 0.00372464 -0.00188352 0.00185083 -0.0038831 -0.00557372 -0.00102064 -0.00485727 -0.00587278 0.00155191 -0.00643021 -0.00154328 -0.00185854 0.00548655 0.00363053 0.00266393 0.00533096 0.00100705 0.0080161 0.0102073 0.00884967 -7.12273e-05 0.00391753 0.0102062 0.00371134 0.00436812 0.000818427 0.00499035 -3.40992e-05 -0.00128554 0.00216032 -0.0034813 -0.00511891 -0.00380299 -0.00547923 -0.00395714 -0.00594725 -0.0077509 -0.0144085 -0.00505962 -0.00176509 -0.00535707 0.00468643 0.00208433 0.000766986 0.00356458 0.000619844 0.00455338 0.00244703 0.00718402 0.000721649 0.000309278 0.00793814 0.00693816 0.0051982 0.0082404 0.00474782 0.00716377 -0.00224033 0.00251754 0.00390483 -0.000554591 -0.00848824 -0.00365886 -0.0102043 -0.00869113 -0.00497804 -0.00523466 -0.00401467 -0.00102719 -0.00260304 0.000843173 -0.00290457 0.00717437 0.00682306 0.00180239 0.00916704 0.00177239 0.00639175 0.00494845 0.0057732 0.00945582 0.00219334 0.00934052 0.0088418 0.00749197 0.00125462 0.00642236 0.00745589 0.00367633 -0.000423271 0.00245239 0.000193017 0.000510303 -0.00239736 0.00326052 -0.000800624 0.000947275 -0.000640083 -0.00076105 0.00284876 0.00424885 0.00963729 0.00734709 0.00639199 0.00877843 0.00938144 0.00814433 0.00979381 0.00927811 0.00741757 0.00479194 0.00590771 0.00880567 0.00687326 0.00856406 0.00111058 0.00264318 0.00375284 0.00207718 0.00341572 0.0016038 0.0067111 0.00819812 -0.000878364 0.00359537 -0.00117214 0.00554651 0.000890208 0.0032508 0.00261883 0.00728391 0.00836365 0.00950026 0.00226804 0.00226804 0.00938144 0.00762887 0.00216502 0.0081568 0.00776925 0.00449404 0.00319212 0.00899917 3.83962e-05 0.00104072 0.0047732 0.00813531 0.00133233 0.000826795 0.00224333 0.00812471 0.00154344 0.0076703 0.00556019 0.00617344 0.000995551 0.00572457 0.00326718 0.00670057 0.00690722 0.00206186 0.00742268 0.00525773 0.00360825 0.00494845 0.0042268 0.0042268 0.00525663 0.000613924 0.00708981 0.00772573 0.00258753 0.00618644 0.00326331 0.00715981 0.00223069 0.00551002 0.00190175 0.000130701 0.00850657 0.00524791 0.00494678 0.00464918 0.00711666 0.00645736 0.00309688 0.00237113 0.00371134 0.00608247 0.00546392 0.00670103 0.00247423 0.00164948 0.000927835 0.00443299 0.00917526 0.00278351 0.00927835 0 0.00453608 0.00216495 0.00783505 0.00824832 0.00381641 0.00886598 0.00670103 0.0042268 0.00381443 0.00268041 0.00134021 0.00350515 0.00113402 0.00505155 0.00876289 0.00938144 0.00381443 0.00731959 0.00402062 0.0028866 0.0057732 0.00783505 0.00298969 0.00948454 0.00907213 0.00628475 0.00803592 0.00555976 0.00834464 0.00162189 0.00616714 0.00138129 0.00332365 0.00878851 0.00263344 0.00143224 0.00521688 0.00937723 0.00534647 0.00864553 0.00416714 0.00841448 0.00649499 0.00927835 0.00278351 0.00804124 0.0014433 0.00175258 0.000824742 0.0102062 0.00835346 0.00123821 0.00277919 0.000958525 0.00157341 0.00721523 0.0013173 0.00604847 0.00293671 0.00382338 0.00383192 0.00712802 1.24034e-05 0.0012336 -0.000219626 -0.000911118 0.00959627 0.00894724 0.00894601 0.00694626 0.00835742 0.00639165 0.00484373 0.00742268 0.00515464 0.00927835 0.0028866 0.00762722 0.00464604 0.00576974 0.00843769 0.000395812 0.00671703 0.00208994 -0.0008784 0.00220719 0.0051741 0.000802631 -0.000283274 0.00359609 -0.00040325 0.00127816 0.00593366 0.00790444 -0.00057175 0.00749945 0.00846521 0.00169812 0.000548709 0.0070636 0.00854801 0.00505449 0.0043299 0.00391753 0.00639175 0.000818744 0.00331376 0.00766519 0.00500007 0.00744242 0.00779275 0.00764676 0.00508572 0.00519017 0.00209166 0.00352214 0.00379286 0.00171721 0.0015136 0.00173994 0.00557973 0.00444363 0.00615936 0.00209955 0.00166843 0.00579735 0.00922586 0.00649654 0.00244372 0.009478 0.00557105 0.00783505 0.000309278 0.00525534 0.00885888 0.00159829 0.00122887 0.00718602 0.00491986 0.00863053 0.00886288 0.00836045 0.00664492 -0.00127469 -0.00303684 0.000454186 -0.00272844 -0.00144649 0.00407278 0.00253914 -0.000589439 0.000746498 -0.0001364 -0.00075821 0.00531399 0.0041946 0.00811878 0.00597567 0.000317067 0.000412371 0.00206233 0.00702039 0.00291983 0.00531074 0.0115442 0.00798623 0.00742672 0.01018 0.00935865 0.000995251 -0.00134914 0.0038472 -0.000254389 0.00418661 0.00349139 -0.00409457 0.00390074 -0.00366114 -0.0045248 0.00097574 0.000776334 0.00335929 0.00331372 0.00887029 0.00550526 0.00187364 0.00455278 0.0101031 0.00218345 0.00861884 0.00220827 0.00974025 0.00324444 0.00616635 0.00975144 0.00403382 0.00366186 0.00299877 0.00661681 0.00580733 -7.41422e-05 -0.00241595 -0.0070038 -0.00248573 0.00171243 -0.00767845 -0.00207349 -0.00134202 0.00747263 0.00197392 0.00534009 0.000879674 0.00976702 0.00956153 0.000423342 0.00569492 0.00639264 0.00158498 0.00926101 0.00708486 0.00456816 0.00260718 -0.00309606 -0.00126294 0.000615532 0.000356735 -0.00158236 0.00814311 0.00538055 0.00528018 -0.0041808 0.00271901 -0.00197643 -0.0062296 -0.00362138 -0.002902 -0.00158681 0.00925053 0.00687315 0.000972637 0.00755427 0.00414558 0.00979471 0.00793814 0.00791209 0.00863774 0.0004939 0.0019302 -0.000348442 0.00244073 -0.000571131 -0.00360598 -0.00379043 -0.000168965 -0.00241951 -0.00198539 0.00463759 0.000807589 0.00356588 0.00074707 -0.00836463 -0.00283486 -0.005436 -0.00348772 0.00720091 0.00408985 0.00600074 0.00774169 0.00105288 0.00676454 0.000658096 0.0043299 0.00452045 0.00602305 0.00604856 0.00507876 0.00625826 0.000293272 0.000122459 -0.00011707 -0.00741771 0.00127534 0.00560615 0.00415444 -0.00529769 -0.00266718 -0.00414145 -0.00381716 -0.00390798 -0.00314661 -0.0045344 0.00377294 -0.00346024 0.0041808 0.00176633 0.00554562 0.00435902 0.0065753 0.000722989 0.0057732 0.00866837 0.000875564 0.00901652 0.00747932 -0.00342765 -0.00181747 -0.00587913 -0.00316831 -0.000390767 0.00455969 0.0027398 0.00349669 -0.00457204 0.00237663 -0.00507722 -0.0107394 -0.00651618 -0.00744802 -0.000109298 -0.00468261 0.00152307 0.00261616 0.00629651 0.000602815 0.00596478 0.00767319 0.00576625 0.00804124 0.00598351 0.0090715 -0.000306705 0.00129004 0.00146926 -0.00588552 0.000975642 0.00203596 -0.0047337 -0.00139858 0.00208442 -0.00212161 0.001469 -0.00219125 -0.00332928 -0.00503889 -0.00816691 -0.000639452 -0.00159556 -0.00677011 -0.000165603 -0.00203944 -0.000863814 0.0083385 0.00477762 0.00461187 0.00103432 0.00226804 0.00917583 0.00984329 0.00879656 0.00678057 0.00451126 0.000356803 0.00252594 0.00101887 0.00301465 -0.00861383 0.00072732 0.00331826 0.00188675 -0.00496021 -0.00205725 -0.00514293 -0.00272108 0.000695711 -0.00445804 0.000708809 -0.00436338 -0.000496586 -0.000264899 0.00801723 0.00441225 0.000597758 0.00618413 0.000206186 0.006418 0.00129521 0.00302901 0.00103956 0.00217932 0.0015017 0.00484269 0.00209744 -0.00535481 -0.00771269 -0.00635392 -0.00464132 -0.00384019 -0.00230618 -0.0104562 -0.0085977 -0.00649344 -0.00534873 -0.00192354 -0.00285541 0.00274172 -0.00380654 0.00794738 0.00802666 0.000442707 0.00704516 0.00206184 0.00494845 0.00077447 0.00853474 0.00507444 0.0060547 0.000434843 -0.00144496 0.00317214 0.00109891 -0.00138645 0.00288606 0.00289524 -0.0047017 -0.000449575 -0.0041439 -0.00823837 -0.0105364 -0.00738429 -0.00263101 -0.00218633 -0.00271522 -0.003299 0.00417038 0.0074645 0.00306283 -0.000423887 0.00133779 0.00101051 0.00896907 0.00147004 0.00649892 0.00569617 0.00375096 0.00235769 0.00802275 0.00905854 0.00558357 0.0032201 -0.00362149 0.00452265 0.00437082 -0.00496904 0.00155491 -0.00660331 -0.0077527 -0.00635694 -0.0029771 0.00624495 0.00606939 -0.000377216 0.00620851 0.00958941 0.00974016 0.000461586 0.000755772 0.00864267 0.000618557 0.00970066 0.00859024 0.0054831 0.00643723 0.00159898 0.00479628 0.00868087 -0.00103421 0.00497581 -0.00117432 -0.00227824 0.00282728 -0.00517837 -0.00682865 -0.00949763 -0.000956706 0.00121802 -0.00479935 0.0016163 0.000614356 0.00622808 0.00726175 0.00662622 0.0049836 0.00360842 0.0094201 0.00443429 0.00360825 0.00463948 0.0102077 0.0105294 0.0027976 0.0014348 0.00782484 0.0047325 -0.0014127 -0.00370347 -0.0028491 -0.00230716 0.0019442 -0.00594049 -0.00915489 -0.00647879 -0.00248502 -0.00257225 0.00202154 0.00281786 0.000189361 -0.000885509 0.00670093 0.00733343 0.0049555 0.0082045 0.0023194 0.0019089 0.00329897 0.00969722 0.0103012 0.00967034 0.00336188 0.00973789 0.00579856 0.00469799 0.00544846 0.00421953 0.00580361 -0.000287067 0.000945447 -0.00383394 -0.00516526 -0.0102235 -0.00147811 -0.000591453 -0.00508898 0.00292146 0.00389472 0.00710068 0.0092213 0.00835594 0.00939037 0.00192321 0.00449741 0.00288155 0.00412371 0.000936884 0.0059218 0.00239349 0.00280919 0.00282165 0.00198168 0.0048302 0.00195167 0.00316551 0.0046529 -0.00215675 -0.000686006 -0.0030056 -0.00693968 -0.000844742 -0.00334497 -0.00601477 -0.00526775 0.00272318 -0.00160741 0.00479378 -0.000626233 0.00534068 0.00295623 0.00750509 0.0049576 0.00443299 0.00340206 0.00206293 0.000177642 0.00789492 -0.000114337 0.00322069 -0.00204801 0.00403659 -0.00162464 -0.000335014 0.0035501 -0.000945851 -0.00457609 -0.0060986 -0.00073254 -0.00118615 0.00265997 -0.00162866 0.0053918 0.000255665 0.0012118 -0.0018093 -0.000141983 0.00803224 0.00163363 0.00897511 0.00849114 0.00917526 0.00443299 0.00783505 0.00604828 0.00898232 0.000901493 0.000695513 -0.00225928 0.00238285 0.000522355 -0.00252495 -0.00212133 -6.17121e-05 -0.00149297 0.00216793 -0.00241184 -0.0034271 0.00300654 0.00300301 0.00504663 0.0060925 0.00906405 0.0068712 0.00281084 0.00071382 0.000476624 0.00267263 0.00485901 0.00484536 0.000927835 0.00835052 0.00610558 0.00664709 0.00310807 0.000190888 0.000766682 0.0024089 0.00454616 0.00150609 0.00018843 0.00243773 -0.000339146 0.00635274 0.00507183 0.00609114 0.00374377 0.00308938 0.000830312 0.00394093 0.000930513 0.00266636 0.0012553 0.00757845 -0.000574497 0.00505392 0.00463281 0.00103093 0.00206186 0.00917526 0.00156833 0.00660736 0.00272508 0.0103665 0.00193578 0.00595196 0.0051256 0.00939517 -1.18579e-06 0.00479062 0.00671969 0.00126281 0.00373788 0.00243757 0.00291826 0.000461665 -0.00198171 -0.00138989 0.00575522 0.00648604 0.00236673 0.000342494 0.00274283 0.00938339 0.00309299 0.00195876 0.00907216 0.0056701 0.00298995 0.00774537 0.00170922 0.00296758 0.00360231 0.00382134 0.00652708 0.00622262 -0.000271195 0.00691762 -0.00019925 0.00721718 0.00123841 0.00390719 0.00462859 -0.00107444 0.00267565 0.00559026 0.00890149 -0.00112321 0.0069178 0.00544125 0.00273547 0.00453687 0.00598033 0.00525773 0.0056701 0.000309278 0.0014433 0.00958738 0.00348267 0.00319902 0.00629174 0.00843843 0.00514891 0.00145778 0.00839897 0.00792934 0.00303701 0.00584104 0.00343078 0.00095842 0.00306946 0.00357068 0.000169874 0.00460358 6.30009e-05 0.00747036 0.000804057 0.00586147 0.00360605 0.0042268 0.00979381 0.000721649 0.00690722 0.00876289 0.00103093 0.00164948 0.00979381 0.000311342 0.0102086 0.00125049 0.00794721 0.00280477 0.00967732 0.00656238 0.00384639 0.00553257 0.000832299 0.00789886 0.00793536 0.00804915 0.00170923 0.00604015 0.00694169 0.000463115 0.00696553 0.000306244 0.00525773 0.00402062 0.00216495 0.0014433 0.00319588 0.00309278 0.000206186 0.00886598 0.00195876 0.00226804 0.00783505 0.00226804 0.00494845 0.00927835 0.00639175 0.0101031 0.00394363 0.00964477 0.00938144 0.00226804 0.00247423 0.00329897 0.000515464 0.00247423 0.00989691 0.00443299 0.00515464 0.000206186 0.00123711 0.0042268 0.000618557 0.0057732 0.000824742 0.00670103 0.00340206 0.0101031 0.00175258 0.00650557 0.00723712 0.0052472 0.00614856 0.00459999 0.00897216 0.0120872 0.0067909 0.0101978 0.00373545 0.00712364 0.0104707 0.00975175 0.00996026 0.00557897 0.00163664 0.00167504 0.0093059 0.00229338 0.00680412 0.00783505 0.00164948 0.0014433 0.00587629 0.00195876 0.00948454 0.00907611 0.00979415 0.0101042 0.00497523 0.0144191 0.0170231 0.00785806 0.00636128 0.00935236 0.00961655 0.012178 0.0183093 0.0111725 0.0156352 0.022647 0.0123488 0.0102311 0.00643159 0.00619227 0.00363898 0.00871194 0.00415387 0.00841131 0.00278351 0.00175258 0.000824742 0.000206186 0.000509248 0.00993295 0.0041731 0.00453949 0.0150427 0.0156027 0.0134525 0.0120117 0.00823919 -0.000909273 0.00476772 0.0107323 0.00487481 0.0132987 -8.8896e-05 0.0227739 0.0449551 0.0365401 0.0259229 0.0132662 0.00520853 0.00593058 0.005646 0.00616003 0.005787 0.000927835 0.00113402 0.00154639 0.00234878 0.00372169 0.0077065 0.0057649 0.00459725 0.00902393 -0.00473464 0.000537428 0.00685839 0.0225323 0.018809 -0.0111961 0.0184348 0.00863836 0.027699 0.0212449 0.036353 0.0411044 0.0426512 0.0271336 0.0104034 0.0166109 0.0118478 0.00739784 0.00571797 0.00597783 0.00525773 0.00556701 0.00886795 0.00847767 0.00241297 -0.00488291 0.00072004 -0.0169812 0.0117845 0.0418301 0.041562 0.0437911 0.0158013 0.0177045 0.011081 0.00216289 0.0306898 0.0454857 0.0346088 0.00925342 0.0190668 0.0248459 0.0223931 0.0110516 0.0105767 0.00207666 0.00204447 0.00566429 0.00701031 0.00999945 0.000629335 0.00318144 -0.00388424 -0.00613888 -0.00783277 -0.00418027 0.035049 0.0333614 0.00970744 0.010222 0.00101123 0.0255428 0.0405604 0.0241563 0.0344366 0.022769 0.0300051 -0.00513861 -0.00521424 -0.00674529 -0.00538004 -0.00770095 -0.00232797 0.00867093 0.00861196 0.000174995 0.00670103 0.00190188 0.00199559 -0.00378853 -0.00366851 0.00489742 0.00437663 0.000999933 0.0300918 0.0166886 0.00680032 -0.0241454 -0.034525 -0.0274152 0.00698942 -0.00649543 0.00524796 -0.00074277 -7.95901e-05 -0.0220609 -0.0312869 -0.0229715 -0.0324168 -0.0158142 -0.00448566 0.00220483 0.00744642 0.00356196 0.00984147 0.00309176 0.000632262 0.00384576 -0.000868385 0.0041896 0.00567957 0.000219621 0.0268143 0.00661044 -0.00621834 -0.0260218 -0.0532921 -0.0670365 -0.0533458 -0.0309829 -0.0501506 -0.0400751 -0.0531381 -0.0555962 -0.0411749 -0.0356814 -0.033002 -0.0186848 5.62411e-05 -0.00159194 0.00441912 0.000472175 0.0071134 0.00409128 0.00895425 0.00719995 0.00364115 -0.00450168 -0.00735755 0.00529969 0.0258752 0.0109351 -0.0151486 -0.0221391 -0.0613621 -0.0789687 -0.0625067 -0.0430308 -0.0535388 -0.0462775 -0.0612856 -0.0596153 -0.0557709 -0.0459625 -0.0326491 -0.0142127 -0.00425254 0.00571956 0.00857507 0.0028703 0.0043299 0.0102041 0.00864052 0.00300318 -0.00175781 -0.00691359 -0.00354296 0.0190482 0.0199539 0.0102539 -0.0165342 -0.0207521 -0.0469079 -0.0549058 -0.0404022 -0.0148742 -0.0294778 -0.0397368 -0.0485788 -0.0500951 -0.0496958 -0.0358875 -0.0335582 -0.00607628 0.00466168 0.00905156 0.00176083 0.000717024 0.00278351 0.000590683 0.0087569 0.00131559 -0.00768519 0.00260019 0.00919183 0.0174764 0.0149479 0.0203641 0.0309185 0.0216841 0.0053483 0.00647113 -0.00173962 0.00692168 0.0153819 -0.00085077 -0.0144041 -0.0474133 -0.0338308 -0.0195622 -0.0125521 6.08085e-06 0.00778532 0.00780732 0.00780902 0.00472967 0.00948454 0.00816077 -9.11169e-05 0.00482862 -0.0106249 0.00126321 0.00145287 0.00525627 0.0144729 0.025215 0.035971 0.0252522 -0.0110245 -0.0335453 -0.0213194 0.0251505 0.0147188 0.015745 0.00709259 -0.00259142 -0.00928507 0.00557775 0.00362126 0.00962325 0.00743102 0.00435346 0.010552 0.00118326 0.00443299 0.00228612 0.0068807 0.00227514 0.000251141 0.0063503 -0.00532533 0.00902209 -0.00609608 0.0267016 0.0549416 0.0187951 -0.0124647 -0.0347767 -0.0496645 0.004025 -0.00334232 -6.77535e-05 -0.0134984 0.00659511 0.00938717 0.000562307 0.00442558 0.00915027 0.01175 8.34796e-05 0.0095184 0.00160878 0.000824742 0.00660937 0.00988279 0.0100328 0.00472876 0.000534655 -0.0102576 